FANN_FLO_1.1
3 0.700000 1.000000 0 4 4 5.00000000000000000000e-01 5.00000000000000000000e-01
601 151 11 
0 0 0 0 0 0 0 0 0 0 0 0 0 0 0 0 0 0 0 0 0 0 0 0 0 0 0 0 0 0 0 0 0 0 0 0 0 0 0 0 0 0 0 0 0 0 0 0 0 0 0 0 0 0 0 0 0 0 0 0 0 0 0 0 0 0 0 0 0 0 0 0 0 0 0 0 0 0 0 0 0 0 0 0 0 0 0 0 0 0 0 0 0 0 0 0 0 0 0 0 0 0 0 0 0 0 0 0 0 0 0 0 0 0 0 0 0 0 0 0 0 0 0 0 0 0 0 0 0 0 0 0 0 0 0 0 0 0 0 0 0 0 0 0 0 0 0 0 0 0 0 0 0 0 0 0 0 0 0 0 0 0 0 0 0 0 0 0 0 0 0 0 0 0 0 0 0 0 0 0 0 0 0 0 0 0 0 0 0 0 0 0 0 0 0 0 0 0 0 0 0 0 0 0 0 0 0 0 0 0 0 0 0 0 0 0 0 0 0 0 0 0 0 0 0 0 0 0 0 0 0 0 0 0 0 0 0 0 0 0 0 0 0 0 0 0 0 0 0 0 0 0 0 0 0 0 0 0 0 0 0 0 0 0 0 0 0 0 0 0 0 0 0 0 0 0 0 0 0 0 0 0 0 0 0 0 0 0 0 0 0 0 0 0 0 0 0 0 0 0 0 0 0 0 0 0 0 0 0 0 0 0 0 0 0 0 0 0 0 0 0 0 0 0 0 0 0 0 0 0 0 0 0 0 0 0 0 0 0 0 0 0 0 0 0 0 0 0 0 0 0 0 0 0 0 0 0 0 0 0 0 0 0 0 0 0 0 0 0 0 0 0 0 0 0 0 0 0 0 0 0 0 0 0 0 0 0 0 0 0 0 0 0 0 0 0 0 0 0 0 0 0 0 0 0 0 0 0 0 0 0 0 0 0 0 0 0 0 0 0 0 0 0 0 0 0 0 0 0 0 0 0 0 0 0 0 0 0 0 0 0 0 0 0 0 0 0 0 0 0 0 0 0 0 0 0 0 0 0 0 0 0 0 0 0 0 0 0 0 0 0 0 0 0 0 0 0 0 0 0 0 0 0 0 0 0 0 0 0 0 0 0 0 0 0 0 0 0 0 0 0 0 0 0 0 0 0 0 0 0 0 0 0 0 0 0 0 0 0 0 0 0 0 0 0 0 0 0 0 0 0 0 0 0 0 0 0 0 0 0 0 0 0 0 0 0 0 0 0 0 0 0 0 0 0 0 0 0 0 0 0 0 0 0 0 0 0 0 0 0 0 0 0 0 0 0 0 0 0 0 0 0 0 0 0 0 0 0 0 0 0 0 0 0 0 0 0 0 0 0 0 
601 601 601 601 601 601 601 601 601 601 601 601 601 601 601 601 601 601 601 601 601 601 601 601 601 601 601 601 601 601 601 601 601 601 601 601 601 601 601 601 601 601 601 601 601 601 601 601 601 601 601 601 601 601 601 601 601 601 601 601 601 601 601 601 601 601 601 601 601 601 601 601 601 601 601 601 601 601 601 601 601 601 601 601 601 601 601 601 601 601 601 601 601 601 601 601 601 601 601 601 601 601 601 601 601 601 601 601 601 601 601 601 601 601 601 601 601 601 601 601 601 601 601 601 601 601 601 601 601 601 601 601 601 601 601 601 601 601 601 601 601 601 601 601 601 601 601 601 601 601 0 
151 151 151 151 151 151 151 151 151 151 0 
(0 4.94058799743652343750e+00) (1 4.47060871124267578125e+00) (2 4.86708307266235351562e+00) (3 4.84050989151000976562e+00) (4 4.80844783782958984375e+00) (5 5.34548139572143554688e+00) (6 5.28574419021606445312e+00) (7 4.63634920120239257812e+00) (8 4.72664785385131835938e+00) (9 5.15357685089111328125e+00) (10 4.81518602371215820312e+00) (11 4.50546932220458984375e+00) (12 4.93107128143310546875e+00) (13 4.54333066940307617188e+00) (14 4.62600851058959960938e+00) (15 5.19834089279174804688e+00) (16 4.67950057983398437500e+00) (17 4.71247529983520507812e+00) (18 4.81393527984619140625e+00) (19 4.86838293075561523438e+00) (20 4.69055318832397460938e+00) (21 4.70313549041748046875e+00) (22 4.71244001388549804688e+00) (23 4.75290203094482421875e+00) (24 5.03048086166381835938e+00) (25 5.20237159729003906250e+00) (26 5.34205722808837890625e+00) (27 5.28522872924804687500e+00) (28 5.24010181427001953125e+00) (29 5.75518798828125000000e+00) (30 4.51645612716674804688e+00) (31 5.16007709503173828125e+00) (32 4.91817760467529296875e+00) (33 5.55181789398193359375e+00) (34 4.74723815917968750000e+00) (35 4.89054822921752929688e+00) (36 5.02001905441284179688e+00) (37 4.79373359680175781250e+00) (38 5.20154666900634765625e+00) (39 4.89610767364501953125e+00) (40 4.51348447799682617188e+00) (41 5.00613260269165039062e+00) (42 4.67027664184570312500e+00) (43 4.91063737869262695312e+00) (44 5.06500196456909179688e+00) (45 5.23620843887329101562e+00) (46 5.05468130111694335938e+00) (47 4.36634445190429687500e+00) (48 4.79631996154785156250e+00) (49 4.32513380050659179688e+00) (50 4.70421171188354492188e+00) (51 4.71712112426757812500e+00) (52 5.15239048004150390625e+00) (53 4.84640121459960937500e+00) (54 5.08756256103515625000e+00) (55 5.14518690109252929688e+00) (56 4.67532348632812500000e+00) (57 4.90852642059326171875e+00) (58 5.17207002639770507812e+00) (59 5.48847532272338867188e+00) (60 4.77339696884155273438e+00) (61 5.46515464782714843750e+00) (62 4.49594640731811523438e+00) (63 4.81922483444213867188e+00) (64 4.87086391448974609375e+00) (65 5.13570070266723632812e+00) (66 4.80251264572143554688e+00) (67 4.93943262100219726562e+00) (68 4.88973522186279296875e+00) (69 4.61728429794311523438e+00) (70 4.55962419509887695312e+00) (71 4.84742307662963867188e+00) (72 4.48822784423828125000e+00) (73 4.71655702590942382812e+00) (74 4.80849981307983398438e+00) (75 5.23229503631591796875e+00) (76 5.25459766387939453125e+00) (77 4.87383365631103515625e+00) (78 4.90498208999633789062e+00) (79 4.58694696426391601562e+00) (80 4.76772403717041015625e+00) (81 5.03063392639160156250e+00) (82 4.76330757141113281250e+00) (83 4.67168045043945312500e+00) (84 5.17071104049682617188e+00) (85 5.01755714416503906250e+00) (86 5.01865053176879882812e+00) (87 5.04944038391113281250e+00) (88 5.26675605773925781250e+00) (89 5.04557323455810546875e+00) (90 5.10222625732421875000e+00) (91 5.44691085815429687500e+00) (92 4.86151123046875000000e+00) (93 5.02015113830566406250e+00) (94 5.15295886993408203125e+00) (95 5.06975555419921875000e+00) (96 4.44629287719726562500e+00) (97 4.75087499618530273438e+00) (98 4.96087789535522460938e+00) (99 4.99103116989135742188e+00) (100 4.74877119064331054688e+00) (101 5.19864416122436523438e+00) (102 4.74966239929199218750e+00) (103 4.38488006591796875000e+00) (104 4.90836524963378906250e+00) (105 5.15738630294799804688e+00) (106 5.15340042114257812500e+00) (107 4.69315004348754882812e+00) (108 4.77064371109008789062e+00) (109 4.62746000289916992188e+00) (110 4.88553380966186523438e+00) (111 4.93341970443725585938e+00) (112 4.60031700134277343750e+00) (113 4.83105087280273437500e+00) (114 4.89235162734985351562e+00) (115 4.58397674560546875000e+00) (116 5.01841259002685546875e+00) (117 4.81481647491455078125e+00) (118 4.85138940811157226562e+00) (119 4.59410047531127929688e+00) (120 4.69206285476684570312e+00) (121 5.15361595153808593750e+00) (122 5.12308216094970703125e+00) (123 5.22015428543090820312e+00) (124 5.10181236267089843750e+00) (125 4.47258424758911132812e+00) (126 5.02251100540161132812e+00) (127 4.77574110031127929688e+00) (128 5.24510431289672851562e+00) (129 5.10953950881958007812e+00) (130 4.88028764724731445312e+00) (131 5.03146457672119140625e+00) (132 4.74011898040771484375e+00) (133 4.91266536712646484375e+00) (134 5.10052824020385742188e+00) (135 4.62099456787109375000e+00) (136 4.60418415069580078125e+00) (137 4.75936317443847656250e+00) (138 5.12133550643920898438e+00) (139 4.48236274719238281250e+00) (140 4.81874227523803710938e+00) (141 4.77943658828735351562e+00) (142 5.00224637985229492188e+00) (143 4.68581390380859375000e+00) (144 4.46811962127685546875e+00) (145 5.02025938034057617188e+00) (146 5.04554986953735351562e+00) (147 4.92890834808349609375e+00) (148 5.16255664825439453125e+00) (149 4.62248563766479492188e+00) (150 4.73004674911499023438e+00) (151 4.95289707183837890625e+00) (152 5.25885772705078125000e+00) (153 5.07912015914916992188e+00) (154 4.90233612060546875000e+00) (155 4.81022977828979492188e+00) (156 5.03403615951538085938e+00) (157 4.67593526840209960938e+00) (158 5.05259799957275390625e+00) (159 5.21645641326904296875e+00) (160 4.59586620330810546875e+00) (161 4.50246810913085937500e+00) (162 4.73726701736450195312e+00) (163 4.72830629348754882812e+00) (164 5.42354440689086914062e+00) (165 4.75369501113891601562e+00) (166 5.23626089096069335938e+00) (167 5.27621173858642578125e+00) (168 5.06302928924560546875e+00) (169 4.83514213562011718750e+00) (170 4.66849803924560546875e+00) (171 4.48438405990600585938e+00) (172 4.90572166442871093750e+00) (173 5.00220060348510742188e+00) (174 4.59536123275756835938e+00) (175 4.72280645370483398438e+00) (176 4.71802186965942382812e+00) (177 4.71610212326049804688e+00) (178 4.88705062866210937500e+00) (179 4.67195510864257812500e+00) (180 4.76069307327270507812e+00) (181 4.52138853073120117188e+00) (182 4.96345710754394531250e+00) (183 5.09473085403442382812e+00) (184 5.05950403213500976562e+00) (185 5.05938482284545898438e+00) (186 5.05271100997924804688e+00) (187 4.60062551498413085938e+00) (188 5.15386199951171875000e+00) (189 4.85995101928710937500e+00) (190 4.43335819244384765625e+00) (191 4.95606136322021484375e+00) (192 4.91646051406860351562e+00) (193 4.61623573303222656250e+00) (194 4.84056758880615234375e+00) (195 4.94716691970825195312e+00) (196 4.86747455596923828125e+00) (197 4.81920194625854492188e+00) (198 4.80644893646240234375e+00) (199 5.10128974914550781250e+00) (200 4.61069250106811523438e+00) (201 4.84671926498413085938e+00) (202 4.37027406692504882812e+00) (203 4.93144893646240234375e+00) (204 4.85167360305786132812e+00) (205 4.52671813964843750000e+00) (206 4.87183904647827148438e+00) (207 4.58045959472656250000e+00) (208 4.61086559295654296875e+00) (209 4.47879219055175781250e+00) (210 4.85489082336425781250e+00) (211 4.87924337387084960938e+00) (212 5.23893308639526367188e+00) (213 4.82569837570190429688e+00) (214 4.90026855468750000000e+00) (215 4.76312685012817382812e+00) (216 4.97413158416748046875e+00) (217 4.82004117965698242188e+00) (218 4.96583890914916992188e+00) (219 4.93575382232666015625e+00) (220 4.76228141784667968750e+00) (221 4.71984338760375976562e+00) (222 5.03034639358520507812e+00) (223 4.97430276870727539062e+00) (224 5.01787137985229492188e+00) (225 5.02880668640136718750e+00) (226 5.30322647094726562500e+00) (227 4.67220783233642578125e+00) (228 4.74752616882324218750e+00) (229 4.57973194122314453125e+00) (230 5.05320644378662109375e+00) (231 5.09567594528198242188e+00) (232 4.70980739593505859375e+00) (233 4.89118528366088867188e+00) (234 4.69944238662719726562e+00) (235 4.59749031066894531250e+00) (236 4.91164922714233398438e+00) (237 4.66662025451660156250e+00) (238 4.54150867462158203125e+00) (239 4.34135627746582031250e+00) (240 4.79165172576904296875e+00) (241 4.92669153213500976562e+00) (242 5.03584194183349609375e+00) (243 4.87710857391357421875e+00) (244 4.83625507354736328125e+00) (245 4.90164947509765625000e+00) (246 5.30602884292602539062e+00) (247 4.63334274291992187500e+00) (248 4.44863557815551757812e+00) (249 4.92370796203613281250e+00) (250 4.89213275909423828125e+00) (251 4.81234836578369140625e+00) (252 4.94510602951049804688e+00) (253 5.29409456253051757812e+00) (254 4.99656200408935546875e+00) (255 5.01954126358032226562e+00) (256 5.06839370727539062500e+00) (257 5.05580329895019531250e+00) (258 4.94719457626342773438e+00) (259 4.80419206619262695312e+00) (260 4.92764282226562500000e+00) (261 4.83171892166137695312e+00) (262 4.85478162765502929688e+00) (263 4.85152816772460937500e+00) (264 4.45882606506347656250e+00) (265 4.80856657028198242188e+00) (266 4.88878774642944335938e+00) (267 4.98964166641235351562e+00) (268 4.62741088867187500000e+00) (269 4.46928930282592773438e+00) (270 4.81678247451782226562e+00) (271 4.64256334304809570312e+00) (272 5.22142791748046875000e+00) (273 4.49602794647216796875e+00) (274 4.67649936676025390625e+00) (275 4.88562393188476562500e+00) (276 5.03374767303466796875e+00) (277 5.04380655288696289062e+00) (278 4.66689300537109375000e+00) (279 4.89792299270629882812e+00) (280 5.03874731063842773438e+00) (281 5.25221014022827148438e+00) (282 5.07699346542358398438e+00) (283 4.85664892196655273438e+00) (284 4.84973812103271484375e+00) (285 5.21270227432250976562e+00) (286 4.98904085159301757812e+00) (287 5.40254688262939453125e+00) (288 5.03256940841674804688e+00) (289 4.80576705932617187500e+00) (290 4.94312143325805664062e+00) (291 4.58837318420410156250e+00) (292 5.17662000656127929688e+00) (293 5.04454994201660156250e+00) (294 4.73235464096069335938e+00) (295 4.83055400848388671875e+00) (296 4.84074401855468750000e+00) (297 4.86138057708740234375e+00) (298 4.65631389617919921875e+00) (299 4.60574054718017578125e+00) (300 4.81990909576416015625e+00) (301 4.54473161697387695312e+00) (302 4.83910989761352539062e+00) (303 4.90423297882080078125e+00) (304 4.18183946609497070312e+00) (305 4.49907064437866210938e+00) (306 4.92393589019775390625e+00) (307 5.06421279907226562500e+00) (308 4.61322164535522460938e+00) (309 4.64224863052368164062e+00) (310 4.84440803527832031250e+00) (311 4.62169599533081054688e+00) (312 5.23338317871093750000e+00) (313 5.11103105545043945312e+00) (314 5.11876916885375976562e+00) (315 5.13134479522705078125e+00) (316 5.42583560943603515625e+00) (317 5.24479818344116210938e+00) (318 4.54064750671386718750e+00) (319 4.50590658187866210938e+00) (320 5.11844062805175781250e+00) (321 4.95715475082397460938e+00) (322 5.12031412124633789062e+00) (323 4.83097028732299804688e+00) (324 5.09534215927124023438e+00) (325 4.61961555480957031250e+00) (326 4.81654024124145507812e+00) (327 4.63720703125000000000e+00) (328 4.97840213775634765625e+00) (329 4.57629060745239257812e+00) (330 4.95841360092163085938e+00) (331 4.80411529541015625000e+00) (332 4.85018491744995117188e+00) (333 5.37948894500732421875e+00) (334 4.90967893600463867188e+00) (335 4.90082263946533203125e+00) (336 5.01618385314941406250e+00) (337 5.28938817977905273438e+00) (338 5.01597595214843750000e+00) (339 4.95460796356201171875e+00) (340 5.15251159667968750000e+00) (341 4.66337347030639648438e+00) (342 4.83438968658447265625e+00) (343 4.89450502395629882812e+00) (344 4.90104198455810546875e+00) (345 5.03478479385375976562e+00) (346 4.86138534545898437500e+00) (347 5.04741621017456054688e+00) (348 4.68664503097534179688e+00) (349 4.47117757797241210938e+00) (350 4.82299470901489257812e+00) (351 5.20143938064575195312e+00) (352 5.26866817474365234375e+00) (353 4.81908416748046875000e+00) (354 4.91542100906372070312e+00) (355 4.71492385864257812500e+00) (356 4.93492937088012695312e+00) (357 5.03799104690551757812e+00) (358 5.02720689773559570312e+00) (359 4.65655708312988281250e+00) (360 4.93814134597778320312e+00) (361 4.48519229888916015625e+00) (362 4.90217447280883789062e+00) (363 5.23902177810668945312e+00) (364 5.18795156478881835938e+00) (365 5.07568740844726562500e+00) (366 4.98758840560913085938e+00) (367 4.87964582443237304688e+00) (368 4.98849439620971679688e+00) (369 5.40735912322998046875e+00) (370 4.75766992568969726562e+00) (371 5.01754951477050781250e+00) (372 5.24943685531616210938e+00) (373 4.48675918579101562500e+00) (374 4.98792839050292968750e+00) (375 5.19131612777709960938e+00) (376 5.00594139099121093750e+00) (377 5.20784807205200195312e+00) (378 5.19949913024902343750e+00) (379 5.08705949783325195312e+00) (380 4.67539119720458984375e+00) (381 5.15919303894042968750e+00) (382 5.12370443344116210938e+00) (383 4.60495662689208984375e+00) (384 4.89089345932006835938e+00) (385 4.96985816955566406250e+00) (386 4.98356962203979492188e+00) (387 5.00042867660522460938e+00) (388 4.99727821350097656250e+00) (389 4.90674734115600585938e+00) (390 4.78755378723144531250e+00) (391 4.63661241531372070312e+00) (392 4.78021955490112304688e+00) (393 4.77346897125244140625e+00) (394 4.51515722274780273438e+00) (395 4.43146228790283203125e+00) (396 5.03918409347534179688e+00) (397 5.10326290130615234375e+00) (398 4.74494934082031250000e+00) (399 4.38677501678466796875e+00) (400 4.41732120513916015625e+00) (401 5.09450626373291015625e+00) (402 5.21311140060424804688e+00) (403 5.39592695236206054688e+00) (404 5.46720933914184570312e+00) (405 5.29092597961425781250e+00) (406 4.74386978149414062500e+00) (407 4.70330047607421875000e+00) (408 5.07812261581420898438e+00) (409 5.01560926437377929688e+00) (410 4.71707105636596679688e+00) (411 5.07653045654296875000e+00) (412 4.91364431381225585938e+00) (413 4.79590749740600585938e+00) (414 4.85345554351806640625e+00) (415 4.95276498794555664062e+00) (416 4.54857826232910156250e+00) (417 4.86505985260009765625e+00) (418 5.30677223205566406250e+00) (419 5.14444255828857421875e+00) (420 4.86601591110229492188e+00) (421 4.89467239379882812500e+00) (422 4.88198709487915039062e+00) (423 5.00574445724487304688e+00) (424 5.07323169708251953125e+00) (425 4.95777988433837890625e+00) (426 5.08942747116088867188e+00) (427 5.19323968887329101562e+00) (428 4.75794363021850585938e+00) (429 4.98225498199462890625e+00) (430 5.13375616073608398438e+00) (431 5.01915216445922851562e+00) (432 5.24246788024902343750e+00) (433 5.31351661682128906250e+00) (434 4.93273878097534179688e+00) (435 5.24729824066162109375e+00) (436 4.37692165374755859375e+00) (437 5.20818471908569335938e+00) (438 4.81554174423217773438e+00) (439 5.20987892150878906250e+00) (440 5.11294364929199218750e+00) (441 4.70460605621337890625e+00) (442 4.86303901672363281250e+00) (443 4.94189453125000000000e+00) (444 5.18623828887939453125e+00) (445 5.01306295394897460938e+00) (446 4.67336797714233398438e+00) (447 5.05422258377075195312e+00) (448 5.22290754318237304688e+00) (449 5.26284503936767578125e+00) (450 5.07862091064453125000e+00) (451 4.71212339401245117188e+00) (452 4.93501567840576171875e+00) (453 4.88604259490966796875e+00) (454 4.80431747436523437500e+00) (455 4.83421611785888671875e+00) (456 4.89917898178100585938e+00) (457 4.97468996047973632812e+00) (458 4.60902452468872070312e+00) (459 5.40028190612792968750e+00) (460 5.23504924774169921875e+00) (461 4.87690114974975585938e+00) (462 5.22145652770996093750e+00) (463 5.06895542144775390625e+00) (464 4.84925365447998046875e+00) (465 4.92919826507568359375e+00) (466 5.07082271575927734375e+00) (467 5.11864614486694335938e+00) (468 4.97867727279663085938e+00) (469 5.11027050018310546875e+00) (470 4.82150936126708984375e+00) (471 4.80918121337890625000e+00) (472 5.37288904190063476562e+00) (473 4.99063587188720703125e+00) (474 5.15320825576782226562e+00) (475 5.18983173370361328125e+00) (476 4.99873828887939453125e+00) (477 5.04340648651123046875e+00) (478 5.14226293563842773438e+00) (479 5.16477870941162109375e+00) (480 4.79525899887084960938e+00) (481 4.93877506256103515625e+00) (482 4.73306035995483398438e+00) (483 4.60884380340576171875e+00) (484 4.79639196395874023438e+00) (485 4.76949405670166015625e+00) (486 4.87748765945434570312e+00) (487 4.57468795776367187500e+00) (488 4.76847171783447265625e+00) (489 4.83643388748168945312e+00) (490 5.08765268325805664062e+00) (491 4.82201671600341796875e+00) (492 4.90911293029785156250e+00) (493 4.65454530715942382812e+00) (494 5.06759023666381835938e+00) (495 5.22427272796630859375e+00) (496 5.17774343490600585938e+00) (497 4.54978179931640625000e+00) (498 4.97515153884887695312e+00) (499 5.13196468353271484375e+00) (500 4.80725955963134765625e+00) (501 5.18522834777832031250e+00) (502 5.07157516479492187500e+00) (503 4.76460981369018554688e+00) (504 4.77950954437255859375e+00) (505 5.00454568862915039062e+00) (506 5.43514394760131835938e+00) (507 4.85693025588989257812e+00) (508 4.80304193496704101562e+00) (509 5.15030145645141601562e+00) (510 4.88811063766479492188e+00) (511 5.27144718170166015625e+00) (512 5.15448379516601562500e+00) (513 4.55670118331909179688e+00) (514 4.62231302261352539062e+00) (515 4.87873935699462890625e+00) (516 4.83117580413818359375e+00) (517 5.02572202682495117188e+00) (518 5.15217256546020507812e+00) (519 5.11153650283813476562e+00) (520 4.81173372268676757812e+00) (521 5.07101392745971679688e+00) (522 5.22447872161865234375e+00) (523 4.85492372512817382812e+00) (524 5.05058145523071289062e+00) (525 5.07265281677246093750e+00) (526 4.57100868225097656250e+00) (527 4.99263906478881835938e+00) (528 4.70219707489013671875e+00) (529 4.91493511199951171875e+00) (530 4.86712551116943359375e+00) (531 4.87733173370361328125e+00) (532 4.69455051422119140625e+00) (533 4.64519262313842773438e+00) (534 4.99999952316284179688e+00) (535 4.48701715469360351562e+00) (536 5.39828538894653320312e+00) (537 4.68695783615112304688e+00) (538 4.94719886779785156250e+00) (539 5.26622390747070312500e+00) (540 4.87791299819946289062e+00) (541 5.13872909545898437500e+00) (542 4.83760833740234375000e+00) (543 4.68069934844970703125e+00) (544 4.65064907073974609375e+00) (545 4.98807287216186523438e+00) (546 5.19762039184570312500e+00) (547 5.38186454772949218750e+00) (548 4.57313823699951171875e+00) (549 5.06612491607666015625e+00) (550 4.83349323272705078125e+00) (551 4.97153520584106445312e+00) (552 4.92900657653808593750e+00) (553 4.66893100738525390625e+00) (554 4.97514057159423828125e+00) (555 5.09888982772827148438e+00) (556 4.32108354568481445312e+00) (557 4.86295127868652343750e+00) (558 4.86816787719726562500e+00) (559 4.72162818908691406250e+00) (560 4.87455177307128906250e+00) (561 4.88672542572021484375e+00) (562 4.98404264450073242188e+00) (563 5.05747413635253906250e+00) (564 5.15225982666015625000e+00) (565 4.78410100936889648438e+00) (566 4.99237489700317382812e+00) (567 4.95600891113281250000e+00) (568 4.96310329437255859375e+00) (569 5.01406288146972656250e+00) (570 4.89203643798828125000e+00) (571 4.96982908248901367188e+00) (572 4.78150892257690429688e+00) (573 5.02623224258422851562e+00) (574 4.91517972946166992188e+00) (575 4.95766019821166992188e+00) (576 4.73911094665527343750e+00) (577 5.01926136016845703125e+00) (578 4.90534973144531250000e+00) (579 4.80866861343383789062e+00) (580 5.26261281967163085938e+00) (581 5.07091951370239257812e+00) (582 4.55824136734008789062e+00) (583 4.75514841079711914062e+00) (584 4.97127914428710937500e+00) (585 4.79524946212768554688e+00) (586 5.04874372482299804688e+00) (587 4.83540344238281250000e+00) (588 4.70567750930786132812e+00) (589 4.92571306228637695312e+00) (590 4.63521194458007812500e+00) (591 4.60551595687866210938e+00) (592 4.86805105209350585938e+00) (593 4.66075515747070312500e+00) (594 5.32249927520751953125e+00) (595 5.03788805007934570312e+00) (596 5.00797843933105468750e+00) (597 5.09544563293457031250e+00) (598 4.88820171356201171875e+00) (599 5.11965799331665039062e+00) (600 5.05134439468383789062e+00) (0 3.69845695495605468750e+01) (1 3.66950035095214843750e+01) (2 3.57585563659667968750e+01) (3 3.61829452514648437500e+01) (4 3.63184814453125000000e+01) (5 3.58856620788574218750e+01) (6 3.60071182250976562500e+01) (7 3.53626823425292968750e+01) (8 3.48493385314941406250e+01) (9 3.43606719970703125000e+01) (10 3.56435508728027343750e+01) (11 3.80389938354492187500e+01) (12 3.55179367065429687500e+01) (13 3.71450843811035156250e+01) (14 3.67889251708984375000e+01) (15 3.59664688110351562500e+01) (16 3.63630943298339843750e+01) (17 3.63229103088378906250e+01) (18 3.57492370605468750000e+01) (19 3.82060775756835937500e+01) (20 3.78032493591308593750e+01) (21 3.77425537109375000000e+01) (22 3.89115715026855468750e+01) (23 3.66312370300292968750e+01) (24 3.55401229858398437500e+01) (25 3.49301109313964843750e+01) (26 3.52626953125000000000e+01) (27 3.50523529052734375000e+01) (28 3.62297821044921875000e+01) (29 3.61146926879882812500e+01) (30 3.80545082092285156250e+01) (31 3.62278060913085937500e+01) (32 3.54876365661621093750e+01) (33 3.42796859741210937500e+01) (34 3.42370605468750000000e+01) (35 3.49923782348632812500e+01) (36 3.58059387207031250000e+01) (37 3.55949096679687500000e+01) (38 3.68910446166992187500e+01) (39 3.70089797973632812500e+01) (40 3.77301330566406250000e+01) (41 3.73530883789062500000e+01) (42 3.66710357666015625000e+01) (43 3.54909973144531250000e+01) (44 3.71024856567382812500e+01) (45 3.51368255615234375000e+01) (46 3.82625732421875000000e+01) (47 3.85106277465820312500e+01) (48 3.94322624206542968750e+01) (49 4.04727210998535156250e+01) (50 4.00849571228027343750e+01) (51 3.67432899475097656250e+01) (52 1.37757125854492187500e+02) (53 1.37431777954101562500e+02) (54 3.62143211364746093750e+01) (55 3.62202110290527343750e+01) (56 3.48892021179199218750e+01) (57 3.57157783508300781250e+01) (58 3.54935798645019531250e+01) (59 3.61149673461914062500e+01) (60 3.72539405822753906250e+01) (61 3.56650123596191406250e+01) (62 3.57607803344726562500e+01) (63 3.61348648071289062500e+01) (64 3.67936058044433593750e+01) (65 3.53545265197753906250e+01) (66 3.68453369140625000000e+01) (67 3.64798774719238281250e+01) (68 3.76206588745117187500e+01) (69 3.73217697143554687500e+01) (70 3.93543472290039062500e+01) (71 3.76112670898437500000e+01) (72 3.77745552062988281250e+01) (73 3.74934883117675781250e+01) (74 4.12905426025390625000e+01) (75 3.67101364135742187500e+01) (76 3.76944770812988281250e+01) (77 3.71485557556152343750e+01) (78 3.79019584655761718750e+01) (79 4.05062408447265625000e+01) (80 3.85239524841308593750e+01) (81 3.80664787292480468750e+01) (82 3.68277778625488281250e+01) (83 3.79537429809570312500e+01) (84 3.74574470520019531250e+01) (85 3.62120437622070312500e+01) (86 3.53459777832031250000e+01) (87 3.54300460815429687500e+01) (88 3.54767227172851562500e+01) (89 3.63385543823242187500e+01) (90 3.68696632385253906250e+01) (91 3.53881950378417968750e+01) (92 3.73516197204589843750e+01) (93 3.70583190917968750000e+01) (94 3.66514930725097656250e+01) (95 3.59895133972167968750e+01) (96 3.85046958923339843750e+01) (97 3.83118057250976562500e+01) (98 3.81617965698242187500e+01) (99 3.83679618835449218750e+01) (100 3.92150039672851562500e+01) (101 3.64539375305175781250e+01) (102 3.76576080322265625000e+01) (103 3.87788619995117187500e+01) (104 3.75242385864257812500e+01) (105 3.74619674682617187500e+01) (106 3.68966026306152343750e+01) (107 3.66678199768066406250e+01) (108 3.80243644714355468750e+01) (109 4.06246414184570312500e+01) (110 3.88935241699218750000e+01) (111 3.65511322021484375000e+01) (112 3.70861091613769531250e+01) (113 3.83007621765136718750e+01) (114 3.69359512329101562500e+01) (115 3.62204933166503906250e+01) (116 3.52770614624023437500e+01) (117 3.45925788879394531250e+01) (118 3.53102035522460937500e+01) (119 3.65053100585937500000e+01) (120 3.74031257629394531250e+01) (121 3.55302124023437500000e+01) (122 3.55583915710449218750e+01) (123 3.62935485839843750000e+01) (124 3.65988769531250000000e+01) (125 3.74711074829101562500e+01) (126 3.73492774963378906250e+01) (127 3.85795936584472656250e+01) (128 3.70404701232910156250e+01) (129 3.60332260131835937500e+01) (130 3.96637458801269531250e+01) (131 3.72217636108398437500e+01) (132 3.96515083312988281250e+01) (133 3.72008628845214843750e+01) (134 3.64622001647949218750e+01) (135 3.72761840820312500000e+01) (136 3.64683990478515625000e+01) (137 3.59402809143066406250e+01) (138 3.69330253601074218750e+01) (139 3.95843772888183593750e+01) (140 3.65226249694824218750e+01) (141 3.62195358276367187500e+01) (142 3.73759078979492187500e+01) (143 3.77348899841308593750e+01) (144 3.69117393493652343750e+01) (145 3.69874687194824218750e+01) (146 3.59287910461425781250e+01) (147 3.48665008544921875000e+01) (148 3.51755676269531250000e+01) (149 3.66343727111816406250e+01) (150 3.82569313049316406250e+01) (151 1.37750457763671875000e+02) (152 3.61356658935546875000e+01) (153 3.67013511657714843750e+01) (154 3.67930183410644531250e+01) (155 3.71532402038574218750e+01) (156 3.77007865905761718750e+01) (157 3.79643478393554687500e+01) (158 3.74828147888183593750e+01) (159 3.77781715393066406250e+01) (160 3.85922164916992187500e+01) (161 3.97348480224609375000e+01) (162 3.91940765380859375000e+01) (163 3.85399971008300781250e+01) (164 3.59039878845214843750e+01) (165 3.85231132507324218750e+01) (166 3.66475753784179687500e+01) (167 3.54051895141601562500e+01) (168 3.60026702880859375000e+01) (169 3.70605201721191406250e+01) (170 3.60054206848144531250e+01) (171 3.59809074401855468750e+01) (172 3.65588264465332031250e+01) (173 3.74420166015625000000e+01) (174 3.80225181579589843750e+01) (175 3.79925994873046875000e+01) (176 3.66659889221191406250e+01) (177 3.65284576416015625000e+01) (178 3.55444221496582031250e+01) (179 3.67374877929687500000e+01) (180 3.89871940612792968750e+01) (181 1.39122207641601562500e+02) (182 3.64063568115234375000e+01) (183 3.61632919311523437500e+01) (184 3.70267829895019531250e+01) (185 3.69612159729003906250e+01) (186 3.71159095764160156250e+01) (187 3.78238830566406250000e+01) (188 3.68746871948242187500e+01) (189 3.78584442138671875000e+01) (190 3.80225257873535156250e+01) (191 3.67957229614257812500e+01) (192 3.71831588745117187500e+01) (193 3.73666572570800781250e+01) (194 3.62790412902832031250e+01) (195 3.75790901184082031250e+01) (196 3.74591026306152343750e+01) (197 3.59398880004882812500e+01) (198 3.66579399108886718750e+01) (199 3.63269348144531250000e+01) (200 3.65727043151855468750e+01) (201 3.69030342102050781250e+01) (202 3.70441741943359375000e+01) (203 3.85456237792968750000e+01) (204 3.78126487731933593750e+01) (205 3.75541687011718750000e+01) (206 3.59190902709960937500e+01) (207 3.68605651855468750000e+01) (208 3.51040878295898437500e+01) (209 3.65689544677734375000e+01) (210 3.82229804992675781250e+01) (211 3.75332794189453125000e+01) (212 3.64981079101562500000e+01) (213 3.72222023010253906250e+01) (214 3.70541000366210937500e+01) (215 3.80722846984863281250e+01) (216 3.66835289001464843750e+01) (217 3.64829826354980468750e+01) (218 3.75050811767578125000e+01) (219 3.79916152954101562500e+01) (220 3.70401229858398437500e+01) (221 3.86355171203613281250e+01) (222 3.76240386962890625000e+01) (223 3.78342933654785156250e+01) (224 3.83987579345703125000e+01) (225 3.60738945007324218750e+01) (226 3.79218063354492187500e+01) (227 3.65444946289062500000e+01) (228 3.62310523986816406250e+01) (229 3.75431632995605468750e+01) (230 3.66500358581542968750e+01) (231 3.64463882446289062500e+01) (232 3.81794357299804687500e+01) (233 3.76091384887695312500e+01) (234 3.73972129821777343750e+01) (235 3.64958190917968750000e+01) (236 3.61578330993652343750e+01) (237 3.69734268188476562500e+01) (238 3.49002456665039062500e+01) (239 3.57307090759277343750e+01) (240 3.75990715026855468750e+01) (241 3.90499534606933593750e+01) (242 3.65246925354003906250e+01) (243 3.77730636596679687500e+01) (244 3.65160064697265625000e+01) (245 3.83822898864746093750e+01) (246 3.54524192810058593750e+01) (247 3.70604896545410156250e+01) (248 3.87292671203613281250e+01) (249 3.90924911499023437500e+01) (250 3.80393600463867187500e+01) (251 4.09102668762207031250e+01) (252 3.86725883483886718750e+01) (253 3.77979011535644531250e+01) (254 3.75711441040039062500e+01) (255 3.60334053039550781250e+01) (256 3.72342529296875000000e+01) (257 3.62537689208984375000e+01) (258 3.72420616149902343750e+01) (259 3.68621826171875000000e+01) (260 3.67723007202148437500e+01) (261 3.86917648315429687500e+01) (262 3.84234886169433593750e+01) (263 3.84628257751464843750e+01) (264 3.69807128906250000000e+01) (265 3.62287101745605468750e+01) (266 3.65048675537109375000e+01) (267 3.60512275695800781250e+01) (268 3.52472000122070312500e+01) (269 3.53249359130859375000e+01) (270 3.66527481079101562500e+01) (271 3.89000701904296875000e+01) (272 3.71102561950683593750e+01) (273 3.66776733398437500000e+01) (274 3.70561828613281250000e+01) (275 3.67108955383300781250e+01) (276 3.60714836120605468750e+01) (277 3.66563911437988281250e+01) (278 3.81752815246582031250e+01) (279 3.83975334167480468750e+01) (280 3.82338218688964843750e+01) (281 3.78463706970214843750e+01) (282 3.74315528869628906250e+01) (283 3.70001182556152343750e+01) (284 3.68947525024414062500e+01) (285 3.62884140014648437500e+01) (286 3.63457908630371093750e+01) (287 3.57442474365234375000e+01) (288 3.69656486511230468750e+01) (289 3.70173797607421875000e+01) (290 3.82445526123046875000e+01) (291 3.98861007690429687500e+01) (292 3.70834770202636718750e+01) (293 3.70140075683593750000e+01) (294 3.64296760559082031250e+01) (295 3.57659683227539062500e+01) (296 3.60332069396972656250e+01) (297 3.62644691467285156250e+01) (298 3.49072761535644531250e+01) (299 3.50903854370117187500e+01) (300 3.78699531555175781250e+01) (301 3.85007667541503906250e+01) (302 3.77120704650878906250e+01) (303 3.52401161193847656250e+01) (304 3.87518539428710937500e+01) (305 3.78853187561035156250e+01) (306 3.71689682006835937500e+01) (307 3.63134956359863281250e+01) (308 3.72470588684082031250e+01) (309 3.81252021789550781250e+01) (310 3.65369873046875000000e+01) (311 3.64895629882812500000e+01) (312 3.81918029785156250000e+01) (313 3.67272529602050781250e+01) (314 3.66627388000488281250e+01) (315 3.69404411315917968750e+01) (316 3.64858360290527343750e+01) (317 3.63685836791992187500e+01) (318 3.77003936767578125000e+01) (319 3.83926582336425781250e+01) (320 3.62408256530761718750e+01) (321 3.67834625244140625000e+01) (322 3.62862701416015625000e+01) (323 3.76093063354492187500e+01) (324 3.53935699462890625000e+01) (325 3.56585388183593750000e+01) (326 3.58817253112792968750e+01) (327 3.74300651550292968750e+01) (328 3.51947021484375000000e+01) (329 3.49993286132812500000e+01) (330 3.74874687194824218750e+01) (331 3.73285636901855468750e+01) (332 3.61938018798828125000e+01) (333 3.50288009643554687500e+01) (334 3.59815521240234375000e+01) (335 3.79052658081054687500e+01) (336 3.72476081848144531250e+01) (337 3.69012756347656250000e+01) (338 3.74138107299804687500e+01) (339 3.78515510559082031250e+01) (340 3.66118469238281250000e+01) (341 3.59204521179199218750e+01) (342 3.74727935791015625000e+01) (343 3.67249984741210937500e+01) (344 3.61141052246093750000e+01) (345 3.60709419250488281250e+01) (346 3.74847488403320312500e+01) (347 3.60085525512695312500e+01) (348 3.99932365417480468750e+01) (349 3.66959495544433593750e+01) (350 3.73551712036132812500e+01) (351 3.64622421264648437500e+01) (352 3.69003791809082031250e+01) (353 3.69833221435546875000e+01) (354 3.85167846679687500000e+01) (355 3.55408592224121093750e+01) (356 3.59422760009765625000e+01) (357 3.60832824707031250000e+01) (358 3.55441856384277343750e+01) (359 3.47088165283203125000e+01) (360 3.73605232238769531250e+01) (361 3.57515792846679687500e+01) (362 3.69844284057617187500e+01) (363 3.52884635925292968750e+01) (364 3.64993705749511718750e+01) (365 3.88452758789062500000e+01) (366 3.75883636474609375000e+01) (367 3.70069770812988281250e+01) (368 3.71923179626464843750e+01) (369 3.70815887451171875000e+01) (370 3.73634185791015625000e+01) (371 3.74532546997070312500e+01) (372 3.67474327087402343750e+01) (373 3.64631118774414062500e+01) (374 3.69522933959960937500e+01) (375 3.54752502441406250000e+01) (376 3.57016334533691406250e+01) (377 3.56070022583007812500e+01) (378 3.68998222351074218750e+01) (379 3.68622550964355468750e+01) (380 3.70176391601562500000e+01) (381 3.62554931640625000000e+01) (382 3.78671264648437500000e+01) (383 3.70880584716796875000e+01) (384 3.55911598205566406250e+01) (385 3.52859649658203125000e+01) (386 3.70599250793457031250e+01) (387 3.63738746643066406250e+01) (388 3.51629753112792968750e+01) (389 3.47113380432128906250e+01) (390 3.82785110473632812500e+01) (391 3.55484428405761718750e+01) (392 3.60872879028320312500e+01) (393 3.56204566955566406250e+01) (394 3.57662467956542968750e+01) (395 3.88567810058593750000e+01) (396 3.64655303955078125000e+01) (397 3.50514831542968750000e+01) (398 3.67654647827148437500e+01) (399 3.93948020935058593750e+01) (400 3.83925857543945312500e+01) (401 3.63576927185058593750e+01) (402 3.56345291137695312500e+01) (403 3.59452476501464843750e+01) (404 3.75772247314453125000e+01) (405 3.70968818664550781250e+01) (406 3.67727279663085937500e+01) (407 3.63804054260253906250e+01) (408 3.66389045715332031250e+01) (409 3.72886505126953125000e+01) (410 3.54924163818359375000e+01) (411 3.54893875122070312500e+01) (412 3.80488700866699218750e+01) (413 3.84286994934082031250e+01) (414 3.58787727355957031250e+01) (415 3.56155166625976562500e+01) (416 3.70402374267578125000e+01) (417 3.72829437255859375000e+01) (418 3.38367347717285156250e+01) (419 3.42953414916992187500e+01) (420 3.79116859436035156250e+01) (421 3.60554008483886718750e+01) (422 3.66603126525878906250e+01) (423 3.60087699890136718750e+01) (424 3.52660827636718750000e+01) (425 3.65759162902832031250e+01) (426 3.55931243896484375000e+01) (427 3.64232826232910156250e+01) (428 3.71261596679687500000e+01) (429 3.74649200439453125000e+01) (430 3.63259620666503906250e+01) (431 3.71870346069335937500e+01) (432 3.57034111022949218750e+01) (433 3.64780426025390625000e+01) (434 3.70294990539550781250e+01) (435 3.60436477661132812500e+01) (436 3.58030395507812500000e+01) (437 3.61814460754394531250e+01) (438 3.66214294433593750000e+01) (439 3.67419052124023437500e+01) (440 3.60216941833496093750e+01) (441 3.69636192321777343750e+01) (442 3.80711708068847656250e+01) (443 3.60043373107910156250e+01) (444 3.62446556091308593750e+01) (445 3.62602462768554687500e+01) (446 3.68006515502929687500e+01) (447 3.57737808227539062500e+01) (448 3.30493698120117187500e+01) (449 3.50916213989257812500e+01) (450 3.70411415100097656250e+01) (451 3.73923187255859375000e+01) (452 3.57556152343750000000e+01) (453 3.81028900146484375000e+01) (454 3.94410324096679687500e+01) (455 3.70033187866210937500e+01) (456 3.56350784301757812500e+01) (457 3.73129005432128906250e+01) (458 3.94463729858398437500e+01) (459 3.61370811462402343750e+01) (460 3.69270248413085937500e+01) (461 3.73855400085449218750e+01) (462 3.71532287597656250000e+01) (463 3.62128868103027343750e+01) (464 3.72437629699707031250e+01) (465 3.73209381103515625000e+01) (466 3.67147636413574218750e+01) (467 3.59729423522949218750e+01) (468 3.55420761108398437500e+01) (469 3.52150573730468750000e+01) (470 3.76138381958007812500e+01) (471 3.56874198913574218750e+01) (472 3.68005867004394531250e+01) (473 3.54315986633300781250e+01) (474 3.86276397705078125000e+01) (475 3.64248428344726562500e+01) (476 3.69841156005859375000e+01) (477 3.56269302368164062500e+01) (478 3.38176040649414062500e+01) (479 3.55708885192871093750e+01) (480 3.84636192321777343750e+01) (481 3.66487770080566406250e+01) (482 3.50984306335449218750e+01) (483 3.72406082153320312500e+01) (484 3.79257659912109375000e+01) (485 3.90383110046386718750e+01) (486 3.72676353454589843750e+01) (487 3.78144264221191406250e+01) (488 3.85767059326171875000e+01) (489 3.98628616333007812500e+01) (490 3.72385253906250000000e+01) (491 3.75501708984375000000e+01) (492 3.72144966125488281250e+01) (493 3.65254325866699218750e+01) (494 3.75715789794921875000e+01) (495 3.73529052734375000000e+01) (496 3.77492408752441406250e+01) (497 3.66677360534667968750e+01) (498 3.66699676513671875000e+01) (499 3.62119407653808593750e+01) (500 3.67718544006347656250e+01) (501 3.50562896728515625000e+01) (502 3.75838050842285156250e+01) (503 3.76411399841308593750e+01) (504 3.91121597290039062500e+01) (505 3.69190559387207031250e+01) (506 3.66410751342773437500e+01) (507 3.62003021240234375000e+01) (508 3.52379531860351562500e+01) (509 3.58702659606933593750e+01) (510 3.79953918457031250000e+01) (511 3.58013839721679687500e+01) (512 3.52738876342773437500e+01) (513 3.74008750915527343750e+01) (514 3.86504211425781250000e+01) (515 3.86018447875976562500e+01) (516 3.66823806762695312500e+01) (517 3.66540451049804687500e+01) (518 3.66583480834960937500e+01) (519 3.63355026245117187500e+01) (520 3.72198486328125000000e+01) (521 3.96213302612304687500e+01) (522 3.73659858703613281250e+01) (523 3.71789207458496093750e+01) (524 3.61177825927734375000e+01) (525 3.78553009033203125000e+01) (526 3.94767570495605468750e+01) (527 3.83572998046875000000e+01) (528 3.77453727722167968750e+01) (529 3.94780921936035156250e+01) (530 3.85058898925781250000e+01) (531 3.65085449218750000000e+01) (532 3.70632820129394531250e+01) (533 3.71384429931640625000e+01) (534 3.71431007385253906250e+01) (535 3.69882812500000000000e+01) (536 3.64605445861816406250e+01) (537 3.72825012207031250000e+01) (538 3.49842758178710937500e+01) (539 3.56023406982421875000e+01) (540 3.70232849121093750000e+01) (541 3.59565467834472656250e+01) (542 3.54705200195312500000e+01) (543 3.54890518188476562500e+01) (544 3.80752830505371093750e+01) (545 3.62777023315429687500e+01) (546 3.63190994262695312500e+01) (547 3.64422149658203125000e+01) (548 3.64902725219726562500e+01) (549 3.60837707519531250000e+01) (550 3.65221328735351562500e+01) (551 3.69072799682617187500e+01) (552 3.67812194824218750000e+01) (553 3.72757682800292968750e+01) (554 3.54721717834472656250e+01) (555 3.71539421081542968750e+01) (556 3.96074028015136718750e+01) (557 3.91310234069824218750e+01) (558 3.78207015991210937500e+01) (559 4.01593818664550781250e+01) (560 3.68000946044921875000e+01) (561 3.55011672973632812500e+01) (562 3.65110702514648437500e+01) (563 3.60648498535156250000e+01) (564 3.64607048034667968750e+01) (565 3.62384185791015625000e+01) (566 3.54221191406250000000e+01) (567 3.67893218994140625000e+01) (568 3.56647605895996093750e+01) (569 3.62555351257324218750e+01) (570 3.63841400146484375000e+01) (571 3.63666191101074218750e+01) (572 3.63351058959960937500e+01) (573 3.53151550292968750000e+01) (574 3.59807243347167968750e+01) (575 3.66025543212890625000e+01) (576 3.69453697204589843750e+01) (577 3.66165733337402343750e+01) (578 3.83401489257812500000e+01) (579 3.97146301269531250000e+01) (580 3.77044601440429687500e+01) (581 3.62604484558105468750e+01) (582 3.82232437133789062500e+01) (583 3.62114830017089843750e+01) (584 3.55825729370117187500e+01) (585 3.69413414001464843750e+01) (586 3.72193489074707031250e+01) (587 3.83380050659179687500e+01) (588 3.95820617675781250000e+01) (589 4.00518760681152343750e+01) (590 3.63218040466308593750e+01) (591 3.56552124023437500000e+01) (592 3.57643470764160156250e+01) (593 3.62345314025878906250e+01) (594 3.60488014221191406250e+01) (595 3.51858787536621093750e+01) (596 3.45828590393066406250e+01) (597 3.58573303222656250000e+01) (598 3.59361076354980468750e+01) (599 3.68380126953125000000e+01) (600 3.67982826232910156250e+01) (0 1.66508426666259765625e+01) (1 1.83278598785400390625e+01) (2 1.82219352722167968750e+01) (3 1.90281581878662109375e+01) (4 1.87516212463378906250e+01) (5 2.01300258636474609375e+01) (6 2.06284198760986328125e+01) (7 2.01889514923095703125e+01) (8 2.51358718872070312500e+01) (9 2.76959533691406250000e+01) (10 2.67423839569091796875e+01) (11 2.64476242065429687500e+01) (12 2.56338119506835937500e+01) (13 2.11039123535156250000e+01) (14 2.63454895019531250000e+01) (15 2.55338077545166015625e+01) (16 1.99778041839599609375e+01) (17 1.83759479522705078125e+01) (18 1.81818466186523437500e+01) (19 1.87174034118652343750e+01) (20 1.77924537658691406250e+01) (21 1.79802284240722656250e+01) (22 1.93738079071044921875e+01) (23 2.41774082183837890625e+01) (24 2.46124076843261718750e+01) (25 2.42223987579345703125e+01) (26 1.96266117095947265625e+01) (27 2.16053886413574218750e+01) (28 2.12867507934570312500e+01) (29 1.99179744720458984375e+01) (30 1.76237697601318359375e+01) (31 2.02649612426757812500e+01) (32 1.97832565307617187500e+01) (33 2.37653141021728515625e+01) (34 2.45328578948974609375e+01) (35 1.85260009765625000000e+01) (36 1.77644710540771484375e+01) (37 1.62416648864746093750e+01) (38 1.82071971893310546875e+01) (39 2.11293010711669921875e+01) (40 2.07811298370361328125e+01) (41 2.19536590576171875000e+01) (42 2.02537212371826171875e+01) (43 1.89412097930908203125e+01) (44 1.93410549163818359375e+01) (45 1.83046150207519531250e+01) (46 1.82499828338623046875e+01) (47 1.87022533416748046875e+01) (48 1.99824905395507812500e+01) (49 2.36806945800781250000e+01) (50 2.07840023040771484375e+01) (51 2.20736217498779296875e+01) (52 2.42991237640380859375e+01) (53 2.10424766540527343750e+01) (54 1.93498363494873046875e+01) (55 2.07113609313964843750e+01) (56 1.84824676513671875000e+01) (57 1.87385482788085937500e+01) (58 2.07737674713134765625e+01) (59 2.12459106445312500000e+01) (60 1.80041141510009765625e+01) (61 2.11134719848632812500e+01) (62 1.86874332427978515625e+01) (63 1.72282333374023437500e+01) (64 2.20219860076904296875e+01) (65 1.81639289855957031250e+01) (66 1.82935733795166015625e+01) (67 1.85822696685791015625e+01) (68 1.87807559967041015625e+01) (69 1.82365417480468750000e+01) (70 1.81588592529296875000e+01) (71 1.79736118316650390625e+01) (72 1.84915618896484375000e+01) (73 1.85686111450195312500e+01) (74 1.90419292449951171875e+01) (75 1.87191429138183593750e+01) (76 1.99336528778076171875e+01) (77 2.60058021545410156250e+01) (78 2.21621818542480468750e+01) (79 1.90104179382324218750e+01) (80 1.86653938293457031250e+01) (81 2.11867980957031250000e+01) (82 2.40567264556884765625e+01) (83 2.65869808197021484375e+01) (84 1.87824687957763671875e+01) (85 1.86704216003417968750e+01) (86 1.94023723602294921875e+01) (87 1.78288478851318359375e+01) (88 1.95795364379882812500e+01) (89 2.13144321441650390625e+01) (90 1.81485252380371093750e+01) (91 2.08659172058105468750e+01) (92 1.83392238616943359375e+01) (93 1.83228015899658203125e+01) (94 2.24210319519042968750e+01) (95 1.75161113739013671875e+01) (96 2.22211189270019531250e+01) (97 1.89095897674560546875e+01) (98 1.84448852539062500000e+01) (99 1.90076675415039062500e+01) (100 1.81552314758300781250e+01) (101 1.80094223022460937500e+01) (102 1.78762683868408203125e+01) (103 1.82848625183105468750e+01) (104 1.83089523315429687500e+01) (105 1.86853218078613281250e+01) (106 1.85445594787597656250e+01) (107 1.86025485992431640625e+01) (108 1.98501129150390625000e+01) (109 1.90384712219238281250e+01) (110 1.92264938354492187500e+01) (111 2.25263881683349609375e+01) (112 2.00269355773925781250e+01) (113 2.24345359802246093750e+01) (114 1.81600837707519531250e+01) (115 1.87518348693847656250e+01) (116 1.85110492706298828125e+01) (117 1.77826404571533203125e+01) (118 1.85325965881347656250e+01) (119 2.13607730865478515625e+01) (120 1.97227134704589843750e+01) (121 2.04087352752685546875e+01) (122 2.13118782043457031250e+01) (123 1.83831043243408203125e+01) (124 2.06270847320556640625e+01) (125 2.19942722320556640625e+01) (126 2.47687625885009765625e+01) (127 1.84764919281005859375e+01) (128 1.88525962829589843750e+01) (129 2.60138835906982421875e+01) (130 2.20902156829833984375e+01) (131 1.93002262115478515625e+01) (132 1.89954433441162109375e+01) (133 1.73066635131835937500e+01) (134 1.75876903533935546875e+01) (135 1.75202350616455078125e+01) (136 1.80098953247070312500e+01) (137 2.15825519561767578125e+01) (138 2.56091423034667968750e+01) (139 1.84673099517822265625e+01) (140 1.80387477874755859375e+01) (141 2.02497005462646484375e+01) (142 1.79708995819091796875e+01) (143 1.98004741668701171875e+01) (144 1.77990360260009765625e+01) (145 1.86438293457031250000e+01) (146 1.84444351196289062500e+01) (147 1.82520790100097656250e+01) (148 1.85552043914794921875e+01) (149 2.14632225036621093750e+01) (150 2.43375644683837890625e+01) (151 1.96358757019042968750e+01) (152 1.85653896331787109375e+01) (153 1.92584953308105468750e+01) (154 2.06032066345214843750e+01) (155 2.18004665374755859375e+01) (156 2.06080379486083984375e+01) (157 1.81738452911376953125e+01) (158 1.85168285369873046875e+01) (159 2.13279495239257812500e+01) (160 2.16054096221923828125e+01) (161 2.12387561798095703125e+01) (162 2.14843521118164062500e+01) (163 1.87875976562500000000e+01) (164 1.79507865905761718750e+01) (165 1.87758026123046875000e+01) (166 2.09338665008544921875e+01) (167 2.50192928314208984375e+01) (168 2.13173274993896484375e+01) (169 2.11922416687011718750e+01) (170 1.78240070343017578125e+01) (171 1.90351867675781250000e+01) (172 1.79761734008789062500e+01) (173 1.82410163879394531250e+01) (174 1.78483257293701171875e+01) (175 1.92693119049072265625e+01) (176 2.24009342193603515625e+01) (177 1.89579257965087890625e+01) (178 1.79926929473876953125e+01) (179 2.15727958679199218750e+01) (180 2.43835582733154296875e+01) (181 1.88881340026855468750e+01) (182 1.81101341247558593750e+01) (183 2.26682624816894531250e+01) (184 2.04333171844482421875e+01) (185 1.93566303253173828125e+01) (186 1.86813488006591796875e+01) (187 2.02507781982421875000e+01) (188 2.03557434082031250000e+01) (189 1.83514862060546875000e+01) (190 2.13187408447265625000e+01) (191 2.56376209259033203125e+01) (192 2.55853652954101562500e+01) (193 2.10638370513916015625e+01) (194 1.80441455841064453125e+01) (195 1.78348064422607421875e+01) (196 2.04691486358642578125e+01) (197 2.15200023651123046875e+01) (198 2.01605873107910156250e+01) (199 1.96441249847412109375e+01) (200 1.83581142425537109375e+01) (201 1.86084175109863281250e+01) (202 1.79095973968505859375e+01) (203 1.86949920654296875000e+01) (204 1.85118236541748046875e+01) (205 1.83336391448974609375e+01) (206 2.17880783081054687500e+01) (207 1.88399429321289062500e+01) (208 1.76339168548583984375e+01) (209 2.17929668426513671875e+01) (210 2.37068023681640625000e+01) (211 2.04379043579101562500e+01) (212 1.92512989044189453125e+01) (213 2.22293376922607421875e+01) (214 2.03223857879638671875e+01) (215 2.17191314697265625000e+01) (216 1.88817176818847656250e+01) (217 2.03708534240722656250e+01) (218 1.86820621490478515625e+01) (219 1.85257587432861328125e+01) (220 1.83227176666259765625e+01) (221 2.12033824920654296875e+01) (222 2.68944797515869140625e+01) (223 2.59941711425781250000e+01) (224 2.16247367858886718750e+01) (225 1.85028743743896484375e+01) (226 2.19943828582763671875e+01) (227 2.14482536315917968750e+01) (228 1.96961994171142578125e+01) (229 2.00164356231689453125e+01) (230 2.24756336212158203125e+01) (231 1.90328903198242187500e+01) (232 1.79815330505371093750e+01) (233 2.18929500579833984375e+01) (234 1.98804149627685546875e+01) (235 1.85253181457519531250e+01) (236 2.09360027313232421875e+01) (237 2.14989814758300781250e+01) (238 1.73093509674072265625e+01) (239 2.02305126190185546875e+01) (240 2.42812004089355468750e+01) (241 2.50115718841552734375e+01) (242 1.87375106811523437500e+01) (243 1.93199424743652343750e+01) (244 2.01103668212890625000e+01) (245 1.89101829528808593750e+01) (246 1.81975326538085937500e+01) (247 1.68276710510253906250e+01) (248 1.79014568328857421875e+01) (249 1.84501647949218750000e+01) (250 1.79881095886230468750e+01) (251 2.13048877716064453125e+01) (252 2.58977546691894531250e+01) (253 2.61162548065185546875e+01) (254 2.18620910644531250000e+01) (255 1.87458953857421875000e+01) (256 2.24103946685791015625e+01) (257 2.57947349548339843750e+01) (258 2.18823127746582031250e+01) (259 2.17695980072021484375e+01) (260 2.19051818847656250000e+01) (261 1.83538379669189453125e+01) (262 1.84423389434814453125e+01) (263 2.45733699798583984375e+01) (264 2.26956920623779296875e+01) (265 1.96851005554199218750e+01) (266 2.16305484771728515625e+01) (267 1.92159938812255859375e+01) (268 1.73174343109130859375e+01) (269 1.99489459991455078125e+01) (270 2.62307853698730468750e+01) (271 2.17427406311035156250e+01) (272 1.81734523773193359375e+01) (273 1.84983425140380859375e+01) (274 2.14199638366699218750e+01) (275 2.14481697082519531250e+01) (276 1.87824058532714843750e+01) (277 1.84052982330322265625e+01) (278 1.89052696228027343750e+01) (279 1.89683494567871093750e+01) (280 1.81930656433105468750e+01) (281 1.95070381164550781250e+01) (282 2.17443809509277343750e+01) (283 2.22235260009765625000e+01) (284 2.58906192779541015625e+01) (285 2.18479957580566406250e+01) (286 2.52213439941406250000e+01) (287 2.56412754058837890625e+01) (288 2.11410465240478515625e+01) (289 2.18957672119140625000e+01) (290 2.53316516876220703125e+01) (291 2.20008487701416015625e+01) (292 2.44776210784912109375e+01) (293 2.50330009460449218750e+01) (294 2.44675674438476562500e+01) (295 1.86696891784667968750e+01) (296 1.99204883575439453125e+01) (297 1.84892692565917968750e+01) (298 1.92528171539306640625e+01) (299 1.98963890075683593750e+01) (300 2.49684543609619140625e+01) (301 1.98101291656494140625e+01) (302 1.83939590454101562500e+01) (303 1.79929485321044921875e+01) (304 2.05351867675781250000e+01) (305 2.17688026428222656250e+01) (306 1.86469669342041015625e+01) (307 1.80949306488037109375e+01) (308 1.92662887573242187500e+01) (309 1.82423820495605468750e+01) (310 1.81153869628906250000e+01) (311 1.76586608886718750000e+01) (312 1.95704097747802734375e+01) (313 2.67513809204101562500e+01) (314 2.64929218292236328125e+01) (315 2.63096027374267578125e+01) (316 2.20128536224365234375e+01) (317 2.56690559387207031250e+01) (318 2.46455612182617187500e+01) (319 2.60426292419433593750e+01) (320 2.58672657012939453125e+01) (321 2.59477005004882812500e+01) (322 2.20684452056884765625e+01) (323 2.44858512878417968750e+01) (324 1.97335548400878906250e+01) (325 1.93028163909912109375e+01) (326 2.15494194030761718750e+01) (327 1.92395706176757812500e+01) (328 2.08832340240478515625e+01) (329 1.98137969970703125000e+01) (330 2.52141017913818359375e+01) (331 1.98083457946777343750e+01) (332 1.78489532470703125000e+01) (333 1.81216049194335937500e+01) (334 2.15015945434570312500e+01) (335 2.12979030609130859375e+01) (336 1.83404483795166015625e+01) (337 1.83666191101074218750e+01) (338 2.04478321075439453125e+01) (339 1.81733684539794921875e+01) (340 1.79275207519531250000e+01) (341 1.79124031066894531250e+01) (342 1.99755668640136718750e+01) (343 2.65818042755126953125e+01) (344 2.54658260345458984375e+01) (345 2.72358665466308593750e+01) (346 1.86837043762207031250e+01) (347 2.22339019775390625000e+01) (348 2.64168434143066406250e+01) (349 2.70915489196777343750e+01) (350 2.50254421234130859375e+01) (351 2.70910396575927734375e+01) (352 2.14249725341796875000e+01) (353 2.00843086242675781250e+01) (354 2.18246383666992187500e+01) (355 2.13698978424072265625e+01) (356 2.10404758453369140625e+01) (357 2.15363769531250000000e+01) (358 2.12028636932373046875e+01) (359 1.93031806945800781250e+01) (360 2.47578620910644531250e+01) (361 1.84739246368408203125e+01) (362 1.80371723175048828125e+01) (363 2.10913143157958984375e+01) (364 2.47758884429931640625e+01) (365 2.16775207519531250000e+01) (366 1.81914710998535156250e+01) (367 1.83350582122802734375e+01) (368 2.23347263336181640625e+01) (369 1.83614559173583984375e+01) (370 1.86453227996826171875e+01) (371 1.87929687500000000000e+01) (372 1.88140907287597656250e+01) (373 2.60128536224365234375e+01) (374 2.10867919921875000000e+01) (375 2.51039485931396484375e+01) (376 2.11055564880371093750e+01) (377 2.07359695434570312500e+01) (378 2.15955295562744140625e+01) (379 2.60181198120117187500e+01) (380 2.60191860198974609375e+01) (381 2.69563789367675781250e+01) (382 2.15310821533203125000e+01) (383 2.02471847534179687500e+01) (384 2.13682174682617187500e+01) (385 2.04848403930664062500e+01) (386 2.13247070312500000000e+01) (387 2.52233238220214843750e+01) (388 1.99906482696533203125e+01) (389 1.93989715576171875000e+01) (390 2.49453697204589843750e+01) (391 1.86990375518798828125e+01) (392 1.84712429046630859375e+01) (393 1.83492145538330078125e+01) (394 1.92065353393554687500e+01) (395 1.94577121734619140625e+01) (396 1.77034492492675781250e+01) (397 1.81813774108886718750e+01) (398 2.16995391845703125000e+01) (399 2.18028812408447265625e+01) (400 1.92338123321533203125e+01) (401 1.83283843994140625000e+01) (402 1.80670185089111328125e+01) (403 2.45824756622314453125e+01) (404 2.09373302459716796875e+01) (405 1.89162540435791015625e+01) (406 2.12771415710449218750e+01) (407 1.92812938690185546875e+01) (408 1.90153732299804687500e+01) (409 2.65331287384033203125e+01) (410 2.54653396606445312500e+01) (411 2.54110794067382812500e+01) (412 2.16712398529052734375e+01) (413 2.24356994628906250000e+01) (414 2.58175964355468750000e+01) (415 2.60118179321289062500e+01) (416 2.55999469757080078125e+01) (417 2.15162563323974609375e+01) (418 1.92667808532714843750e+01) (419 1.96750602722167968750e+01) (420 2.03717823028564453125e+01) (421 1.86635932922363281250e+01) (422 2.14449634552001953125e+01) (423 1.83708133697509765625e+01) (424 1.95034465789794921875e+01) (425 1.95032806396484375000e+01) (426 1.84263858795166015625e+01) (427 1.77011337280273437500e+01) (428 2.11219005584716796875e+01) (429 2.22165069580078125000e+01) (430 2.15959529876708984375e+01) (431 1.86386299133300781250e+01) (432 1.84086399078369140625e+01) (433 2.39245605468750000000e+01) (434 2.19583168029785156250e+01) (435 1.78327064514160156250e+01) (436 2.11627006530761718750e+01) (437 2.08656063079833984375e+01) (438 1.83918056488037109375e+01) (439 2.58397789001464843750e+01) (440 2.55278472900390625000e+01) (441 1.88318233489990234375e+01) (442 2.25126667022705078125e+01) (443 2.53123416900634765625e+01) (444 2.48775920867919921875e+01) (445 2.59869785308837890625e+01) (446 2.58393058776855468750e+01) (447 2.34096126556396484375e+01) (448 1.80273666381835937500e+01) (449 2.08281097412109375000e+01) (450 1.82847423553466796875e+01) (451 1.88837299346923828125e+01) (452 2.59877433776855468750e+01) (453 1.89792575836181640625e+01) (454 1.94076251983642578125e+01) (455 1.90959472656250000000e+01) (456 1.84168510437011718750e+01) (457 1.87560596466064453125e+01) (458 1.91540527343750000000e+01) (459 1.87155323028564453125e+01) (460 1.84437103271484375000e+01) (461 1.84988155364990234375e+01) (462 1.82833633422851562500e+01) (463 1.79928188323974609375e+01) (464 2.18613071441650390625e+01) (465 1.80484523773193359375e+01) (466 2.06871623992919921875e+01) (467 2.14881172180175781250e+01) (468 1.84023113250732421875e+01) (469 1.87421073913574218750e+01) (470 1.99532871246337890625e+01) (471 1.88471107482910156250e+01) (472 2.49320659637451171875e+01) (473 2.50790233612060546875e+01) (474 2.09186935424804687500e+01) (475 2.60217475891113281250e+01) (476 2.51419754028320312500e+01) (477 2.12988452911376953125e+01) (478 1.95097599029541015625e+01) (479 2.11416301727294921875e+01) (480 1.74274063110351562500e+01) (481 1.91261425018310546875e+01) (482 2.10680122375488281250e+01) (483 2.49709796905517578125e+01) (484 2.17485008239746093750e+01) (485 1.88452816009521484375e+01) (486 1.90876464843750000000e+01) (487 1.88446693420410156250e+01) (488 1.89077854156494140625e+01) (489 1.89792594909667968750e+01) (490 1.83827056884765625000e+01) (491 1.92402706146240234375e+01) (492 1.81510581970214843750e+01) (493 1.77160148620605468750e+01) (494 1.83994121551513671875e+01) (495 1.93291645050048828125e+01) (496 1.91383762359619140625e+01) (497 1.95371017456054687500e+01) (498 2.23449954986572265625e+01) (499 2.46638374328613281250e+01) (500 2.13887653350830078125e+01) (501 2.10033512115478515625e+01) (502 2.09808635711669921875e+01) (503 2.71135234832763671875e+01) (504 2.54702262878417968750e+01) (505 2.52597522735595703125e+01) (506 2.13052597045898437500e+01) (507 2.05013389587402343750e+01) (508 1.99741001129150390625e+01) (509 2.12420539855957031250e+01) (510 1.72236785888671875000e+01) (511 1.87684230804443359375e+01) (512 1.86387042999267578125e+01) (513 2.49310989379882812500e+01) (514 2.51089820861816406250e+01) (515 1.81956615447998046875e+01) (516 2.01461696624755859375e+01) (517 2.10949764251708984375e+01) (518 2.15799407958984375000e+01) (519 2.09038467407226562500e+01) (520 1.83143901824951171875e+01) (521 1.87288246154785156250e+01) (522 1.75664501190185546875e+01) (523 1.75997905731201171875e+01) (524 1.87162303924560546875e+01) (525 2.23234920501708984375e+01) (526 1.86492424011230468750e+01) (527 1.86533031463623046875e+01) (528 2.54955158233642578125e+01) (529 2.64088878631591796875e+01) (530 2.02219486236572265625e+01) (531 1.91576728820800781250e+01) (532 2.15015850067138671875e+01) (533 2.53691520690917968750e+01) (534 2.53895893096923828125e+01) (535 2.02659378051757812500e+01) (536 2.12435169219970703125e+01) (537 1.86967010498046875000e+01) (538 1.99050731658935546875e+01) (539 2.11280574798583984375e+01) (540 1.67141036987304687500e+01) (541 1.84076042175292968750e+01) (542 1.81962604522705078125e+01) (543 2.01596012115478515625e+01) (544 2.19852371215820312500e+01) (545 1.81683139801025390625e+01) (546 2.12862586975097656250e+01) (547 2.55013751983642578125e+01) (548 2.15872936248779296875e+01) (549 2.10458183288574218750e+01) (550 2.47007560729980468750e+01) (551 2.25820903778076171875e+01) (552 1.92104625701904296875e+01) (553 1.90683994293212890625e+01) (554 1.87535839080810546875e+01) (555 2.10353431701660156250e+01) (556 1.84082946777343750000e+01) (557 1.80700702667236328125e+01) (558 2.18705005645751953125e+01) (559 2.24651889801025390625e+01) (560 1.88376464843750000000e+01) (561 1.83260402679443359375e+01) (562 2.52404193878173828125e+01) (563 2.55378074645996093750e+01) (564 2.56096458435058593750e+01) (565 1.80969829559326171875e+01) (566 1.84617271423339843750e+01) (567 1.83888206481933593750e+01) (568 1.98735160827636718750e+01) (569 2.00959873199462890625e+01) (570 1.72249870300292968750e+01) (571 1.86129837036132812500e+01) (572 1.70146732330322265625e+01) (573 1.72624340057373046875e+01) (574 1.88104667663574218750e+01) (575 2.00127487182617187500e+01) (576 2.16304378509521484375e+01) (577 1.95149173736572265625e+01) (578 1.88702011108398437500e+01) (579 2.26444664001464843750e+01) (580 2.55796375274658203125e+01) (581 2.66684951782226562500e+01) (582 2.11355628967285156250e+01) (583 2.57090644836425781250e+01) (584 2.22496147155761718750e+01) (585 2.19333648681640625000e+01) (586 1.88262443542480468750e+01) (587 2.16216011047363281250e+01) (588 2.53274669647216796875e+01) (589 2.01254100799560546875e+01) (590 2.08930683135986328125e+01) (591 2.08062286376953125000e+01) (592 2.47153282165527343750e+01) (593 2.12279911041259765625e+01) (594 2.12259960174560546875e+01) (595 1.83524417877197265625e+01) (596 1.80904140472412109375e+01) (597 1.82387847900390625000e+01) (598 1.99673995971679687500e+01) (599 2.00054130554199218750e+01) (600 1.88274364471435546875e+01) (0 1.75214691162109375000e+01) (1 1.75737781524658203125e+01) (2 1.78284454345703125000e+01) (3 1.77186985015869140625e+01) (4 1.79296550750732421875e+01) (5 1.78757858276367187500e+01) (6 1.81123466491699218750e+01) (7 1.73684272766113281250e+01) (8 1.72212200164794921875e+01) (9 1.74173069000244140625e+01) (10 1.79364376068115234375e+01) (11 1.87108116149902343750e+01) (12 1.79957389831542968750e+01) (13 1.81845779418945312500e+01) (14 1.82468185424804687500e+01) (15 1.80441379547119140625e+01) (16 1.80655078887939453125e+01) (17 1.77877159118652343750e+01) (18 1.80229015350341796875e+01) (19 1.81623306274414062500e+01) (20 1.73880329132080078125e+01) (21 1.74174041748046875000e+01) (22 1.72819194793701171875e+01) (23 1.73088092803955078125e+01) (24 1.67865848541259765625e+01) (25 1.72060146331787109375e+01) (26 1.73360824584960937500e+01) (27 1.74785881042480468750e+01) (28 1.75152626037597656250e+01) (29 1.76580600738525390625e+01) (30 1.78490314483642578125e+01) (31 1.79020442962646484375e+01) (32 1.73026885986328125000e+01) (33 1.70699481964111328125e+01) (34 1.69905662536621093750e+01) (35 1.76597728729248046875e+01) (36 1.71375713348388671875e+01) (37 1.68649330139160156250e+01) (38 1.76638145446777343750e+01) (39 1.81214733123779296875e+01) (40 1.84061508178710937500e+01) (41 1.82491493225097656250e+01) (42 1.80502338409423828125e+01) (43 1.76536846160888671875e+01) (44 1.81058292388916015625e+01) (45 1.73042201995849609375e+01) (46 1.82260799407958984375e+01) (47 1.77698402404785156250e+01) (48 1.78167152404785156250e+01) (49 1.85763683319091796875e+01) (50 1.87786655426025390625e+01) (51 1.80254745483398437500e+01) (52 1.75462322235107421875e+01) (53 1.69690628051757812500e+01) (54 1.72010631561279296875e+01) (55 1.73420486450195312500e+01) (56 1.70157623291015625000e+01) (57 1.76072330474853515625e+01) (58 1.73362789154052734375e+01) (59 1.74909133911132812500e+01) (60 1.76031379699707031250e+01) (61 1.78791446685791015625e+01) (62 1.74819335937500000000e+01) (63 1.69506301879882812500e+01) (64 1.78968181610107421875e+01) (65 1.75201396942138671875e+01) (66 1.72596569061279296875e+01) (67 1.74389915466308593750e+01) (68 1.80532989501953125000e+01) (69 1.81590747833251953125e+01) (70 1.85056400299072265625e+01) (71 1.79312934875488281250e+01) (72 1.80213241577148437500e+01) (73 1.83388805389404296875e+01) (74 1.87065200805664062500e+01) (75 1.81987800598144531250e+01) (76 1.85706214904785156250e+01) (77 1.79570026397705078125e+01) (78 1.80425300598144531250e+01) (79 1.84064750671386718750e+01) (80 1.76297035217285156250e+01) (81 1.76281814575195312500e+01) (82 1.78108482360839843750e+01) (83 1.78924598693847656250e+01) (84 1.73524703979492187500e+01) (85 1.78198280334472656250e+01) (86 1.73070278167724609375e+01) (87 1.74734439849853515625e+01) (88 1.74341735839843750000e+01) (89 1.74261894226074218750e+01) (90 1.72998046875000000000e+01) (91 1.77890090942382812500e+01) (92 1.74278583526611328125e+01) (93 1.75209827423095703125e+01) (94 1.81099147796630859375e+01) (95 1.71058502197265625000e+01) (96 1.81893882751464843750e+01) (97 1.79781303405761718750e+01) (98 1.78683567047119140625e+01) (99 1.85315036773681640625e+01) (100 1.84433670043945312500e+01) (101 1.74313755035400390625e+01) (102 1.76288623809814453125e+01) (103 1.80614509582519531250e+01) (104 1.82643413543701171875e+01) (105 1.81518859863281250000e+01) (106 1.78927783966064453125e+01) (107 1.76641235351562500000e+01) (108 1.82444591522216796875e+01) (109 1.87542133331298828125e+01) (110 1.78905792236328125000e+01) (111 1.77263660430908203125e+01) (112 1.75321712493896484375e+01) (113 1.80120391845703125000e+01) (114 1.71019859313964843750e+01) (115 1.75352859497070312500e+01) (116 1.70472450256347656250e+01) (117 1.71737689971923828125e+01) (118 1.75013504028320312500e+01) (119 1.75301532745361328125e+01) (120 1.70961265563964843750e+01) (121 1.77381420135498046875e+01) (122 1.74208297729492187500e+01) (123 1.73987751007080078125e+01) (124 1.80555286407470703125e+01) (125 1.78309135437011718750e+01) (126 1.80210742950439453125e+01) (127 1.79055004119873046875e+01) (128 1.79777565002441406250e+01) (129 1.80850334167480468750e+01) (130 1.84917087554931640625e+01) (131 1.76235599517822265625e+01) (132 1.84047584533691406250e+01) (133 1.79081478118896484375e+01) (134 1.79511909484863281250e+01) (135 1.79580001831054687500e+01) (136 1.75875587463378906250e+01) (137 1.77884407043457031250e+01) (138 1.80127334594726562500e+01) (139 1.79264450073242187500e+01) (140 1.73090038299560546875e+01) (141 1.73585681915283203125e+01) (142 1.78972625732421875000e+01) (143 1.77949390411376953125e+01) (144 1.69473323822021484375e+01) (145 1.77165832519531250000e+01) (146 1.73247184753417968750e+01) (147 1.71688556671142578125e+01) (148 1.75435676574707031250e+01) (149 1.77930908203125000000e+01) (150 1.76663761138916015625e+01) (151 1.76183090209960937500e+01) (152 1.73971767425537109375e+01) (153 1.76901302337646484375e+01) (154 1.82757835388183593750e+01) (155 1.76768531799316406250e+01) (156 1.80236797332763671875e+01) (157 1.77535476684570312500e+01) (158 1.80827121734619140625e+01) (159 1.82596244812011718750e+01) (160 1.83059768676757812500e+01) (161 1.81496067047119140625e+01) (162 1.80592384338378906250e+01) (163 1.83444499969482421875e+01) (164 1.74585533142089843750e+01) (165 1.84270439147949218750e+01) (166 1.83386363983154296875e+01) (167 1.78344707489013671875e+01) (168 1.76883792877197265625e+01) (169 1.77153129577636718750e+01) (170 1.74773292541503906250e+01) (171 1.78662185668945312500e+01) (172 1.79788742065429687500e+01) (173 1.83012886047363281250e+01) (174 1.79371376037597656250e+01) (175 1.77037086486816406250e+01) (176 1.78130283355712890625e+01) (177 1.76855087280273437500e+01) (178 1.77052593231201171875e+01) (179 1.78085212707519531250e+01) (180 1.74991645812988281250e+01) (181 1.74043693542480468750e+01) (182 1.72016716003417968750e+01) (183 1.76531963348388671875e+01) (184 1.82256240844726562500e+01) (185 1.78623104095458984375e+01) (186 1.77922744750976562500e+01) (187 1.79696311950683593750e+01) (188 1.78670024871826171875e+01) (189 1.78910083770751953125e+01) (190 1.80851650238037109375e+01) (191 1.82578887939453125000e+01) (192 1.78155860900878906250e+01) (193 1.76848678588867187500e+01) (194 1.72086372375488281250e+01) (195 1.76554069519042968750e+01) (196 1.84281349182128906250e+01) (197 1.80925903320312500000e+01) (198 1.83089427947998046875e+01) (199 1.79166221618652343750e+01) (200 1.76197052001953125000e+01) (201 1.76282768249511718750e+01) (202 1.76284599304199218750e+01) (203 1.82584705352783203125e+01) (204 1.82772827148437500000e+01) (205 1.76681766510009765625e+01) (206 1.74385814666748046875e+01) (207 1.77859802246093750000e+01) (208 1.73613758087158203125e+01) (209 1.78890247344970703125e+01) (210 1.72205181121826171875e+01) (211 1.70972423553466796875e+01) (212 1.74919242858886718750e+01) (213 1.81663169860839843750e+01) (214 1.77419414520263671875e+01) (215 1.81704273223876953125e+01) (216 1.76923503875732421875e+01) (217 1.77024936676025390625e+01) (218 1.79838390350341796875e+01) (219 1.86213111877441406250e+01) (220 1.79892787933349609375e+01) (221 1.83837738037109375000e+01) (222 1.76947803497314453125e+01) (223 1.78997764587402343750e+01) (224 1.81305522918701171875e+01) (225 1.76048870086669921875e+01) (226 1.83950252532958984375e+01) (227 1.75810813903808593750e+01) (228 1.76896457672119140625e+01) (229 1.78608264923095703125e+01) (230 1.77110404968261718750e+01) (231 1.74338455200195312500e+01) (232 1.75790882110595703125e+01) (233 1.79799041748046875000e+01) (234 1.81580829620361328125e+01) (235 1.75415115356445312500e+01) (236 1.75945262908935546875e+01) (237 1.77702865600585937500e+01) (238 1.67917232513427734375e+01) (239 1.76470127105712890625e+01) (240 1.72324581146240234375e+01) (241 1.75864620208740234375e+01) (242 1.80262050628662109375e+01) (243 1.79975967407226562500e+01) (244 1.72623291015625000000e+01) (245 1.79162960052490234375e+01) (246 1.71275997161865234375e+01) (247 1.72981719970703125000e+01) (248 1.81212177276611328125e+01) (249 1.87438449859619140625e+01) (250 1.80953407287597656250e+01) (251 1.87800941467285156250e+01) (252 1.82600135803222656250e+01) (253 1.84229164123535156250e+01) (254 1.80351829528808593750e+01) (255 1.76234512329101562500e+01) (256 1.82141304016113281250e+01) (257 1.79342079162597656250e+01) (258 1.82023563385009765625e+01) (259 1.79824295043945312500e+01) (260 1.80204162597656250000e+01) (261 1.76985626220703125000e+01) (262 1.75865268707275390625e+01) (263 1.75777072906494140625e+01) (264 1.80345497131347656250e+01) (265 1.78317317962646484375e+01) (266 1.76758956909179687500e+01) (267 1.77105083465576171875e+01) (268 1.71154937744140625000e+01) (269 1.73556327819824218750e+01) (270 1.75414562225341796875e+01) (271 1.77431030273437500000e+01) (272 1.80393848419189453125e+01) (273 1.74955863952636718750e+01) (274 1.78607196807861328125e+01) (275 1.76391162872314453125e+01) (276 1.73225154876708984375e+01) (277 1.77412910461425781250e+01) (278 1.83800277709960937500e+01) (279 1.81906852722167968750e+01) (280 1.77590847015380859375e+01) (281 1.82316932678222656250e+01) (282 1.78255290985107421875e+01) (283 1.81539516448974609375e+01) (284 1.79591464996337890625e+01) (285 1.76634712219238281250e+01) (286 1.79396762847900390625e+01) (287 1.77751350402832031250e+01) (288 1.79448795318603515625e+01) (289 1.78598308563232421875e+01) (290 1.82972526550292968750e+01) (291 1.84354782104492187500e+01) (292 1.78095169067382812500e+01) (293 1.77709636688232421875e+01) (294 1.75930137634277343750e+01) (295 1.75108718872070312500e+01) (296 1.74386615753173828125e+01) (297 1.76565284729003906250e+01) (298 1.71868534088134765625e+01) (299 1.74526042938232421875e+01) (300 1.76289081573486328125e+01) (301 1.75812206268310546875e+01) (302 1.81481876373291015625e+01) (303 1.71552066802978515625e+01) (304 1.78087368011474609375e+01) (305 1.78588829040527343750e+01) (306 1.78084526062011718750e+01) (307 1.74005203247070312500e+01) (308 1.81927318572998046875e+01) (309 1.79411220550537109375e+01) (310 1.76675834655761718750e+01) (311 1.77261810302734375000e+01) (312 1.83463287353515625000e+01) (313 1.81280574798583984375e+01) (314 1.80345745086669921875e+01) (315 1.78521862030029296875e+01) (316 1.79647464752197265625e+01) (317 1.78853206634521484375e+01) (318 1.78920326232910156250e+01) (319 1.78006172180175781250e+01) (320 1.79225330352783203125e+01) (321 1.76651382446289062500e+01) (322 1.74168891906738281250e+01) (323 1.79385509490966796875e+01) (324 1.72401618957519531250e+01) (325 1.75008029937744140625e+01) (326 1.74589004516601562500e+01) (327 1.79254283905029296875e+01) (328 1.75255107879638671875e+01) (329 1.75663127899169921875e+01) (330 1.76492347717285156250e+01) (331 1.72299385070800781250e+01) (332 1.75686435699462890625e+01) (333 1.71322708129882812500e+01) (334 1.75514602661132812500e+01) (335 1.78633422851562500000e+01) (336 1.75736103057861328125e+01) (337 1.76362514495849609375e+01) (338 1.85820808410644531250e+01) (339 1.80988368988037109375e+01) (340 1.75224018096923828125e+01) (341 1.75209140777587890625e+01) (342 1.84484481811523437500e+01) (343 1.81882686614990234375e+01) (344 1.78177661895751953125e+01) (345 1.77303504943847656250e+01) (346 1.77205715179443359375e+01) (347 1.75933856964111328125e+01) (348 1.84830131530761718750e+01) (349 1.76745567321777343750e+01) (350 1.79234828948974609375e+01) (351 1.79229907989501953125e+01) (352 1.77738018035888671875e+01) (353 1.77597103118896484375e+01) (354 1.81704044342041015625e+01) (355 1.75752105712890625000e+01) (356 1.74858074188232421875e+01) (357 1.76912574768066406250e+01) (358 1.77187099456787109375e+01) (359 1.73108043670654296875e+01) (360 1.75682353973388671875e+01) (361 1.73926353454589843750e+01) (362 1.78695831298828125000e+01) (363 1.71589069366455078125e+01) (364 1.79484348297119140625e+01) (365 1.82918243408203125000e+01) (366 1.77755107879638671875e+01) (367 1.77762947082519531250e+01) (368 1.80079555511474609375e+01) (369 1.76050338745117187500e+01) (370 1.76942138671875000000e+01) (371 1.77133159637451171875e+01) (372 1.78525905609130859375e+01) (373 1.77114124298095703125e+01) (374 1.78293819427490234375e+01) (375 1.76897373199462890625e+01) (376 1.75815048217773437500e+01) (377 1.73688011169433593750e+01) (378 1.79675235748291015625e+01) (379 1.78641109466552734375e+01) (380 1.77996387481689453125e+01) (381 1.79261646270751953125e+01) (382 1.78994674682617187500e+01) (383 1.76542510986328125000e+01) (384 1.74467906951904296875e+01) (385 1.72339572906494140625e+01) (386 1.79018917083740234375e+01) (387 1.75222263336181640625e+01) (388 1.78338356018066406250e+01) (389 1.74894523620605468750e+01) (390 1.77607307434082031250e+01) (391 1.77538223266601562500e+01) (392 1.76428184509277343750e+01) (393 1.74269962310791015625e+01) (394 1.76679344177246093750e+01) (395 1.80510635375976562500e+01) (396 1.72907028198242187500e+01) (397 1.70371112823486328125e+01) (398 1.75415687561035156250e+01) (399 1.77856254577636718750e+01) (400 1.77087898254394531250e+01) (401 1.74140605926513671875e+01) (402 1.71348609924316406250e+01) (403 1.75405368804931640625e+01) (404 1.76432647705078125000e+01) (405 1.78684501647949218750e+01) (406 1.77942333221435546875e+01) (407 1.76770324707031250000e+01) (408 1.77751159667968750000e+01) (409 1.79760475158691406250e+01) (410 1.75001087188720703125e+01) (411 1.72151241302490234375e+01) (412 1.77879161834716796875e+01) (413 1.82395725250244140625e+01) (414 1.73731594085693359375e+01) (415 1.74403724670410156250e+01) (416 1.77780399322509765625e+01) (417 1.76621131896972656250e+01) (418 1.74333038330078125000e+01) (419 1.73893985748291015625e+01) (420 1.76687202453613281250e+01) (421 1.79609756469726562500e+01) (422 1.78010196685791015625e+01) (423 1.73944587707519531250e+01) (424 1.76651611328125000000e+01) (425 1.77351913452148437500e+01) (426 1.74008502960205078125e+01) (427 1.74002933502197265625e+01) (428 1.76788692474365234375e+01) (429 1.75053520202636718750e+01) (430 1.74203586578369140625e+01) (431 1.78795604705810546875e+01) (432 1.74835472106933593750e+01) (433 1.75875377655029296875e+01) (434 1.74194774627685546875e+01) (435 1.70708770751953125000e+01) (436 1.76220493316650390625e+01) (437 1.75613880157470703125e+01) (438 1.76030998229980468750e+01) (439 1.79205989837646484375e+01) (440 1.77552185058593750000e+01) (441 1.74818229675292968750e+01) (442 1.77358188629150390625e+01) (443 1.78110561370849609375e+01) (444 1.71708183288574218750e+01) (445 1.73517227172851562500e+01) (446 1.75991992950439453125e+01) (447 1.72806987762451171875e+01) (448 1.71782417297363281250e+01) (449 1.74781303405761718750e+01) (450 1.75805816650390625000e+01) (451 1.81204700469970703125e+01) (452 1.79408245086669921875e+01) (453 1.79045162200927734375e+01) (454 1.82818756103515625000e+01) (455 1.79272308349609375000e+01) (456 1.71472358703613281250e+01) (457 1.79836864471435546875e+01) (458 1.79794273376464843750e+01) (459 1.74104671478271484375e+01) (460 1.74599990844726562500e+01) (461 1.78527412414550781250e+01) (462 1.76481494903564453125e+01) (463 1.74580879211425781250e+01) (464 1.77340068817138671875e+01) (465 1.72456378936767578125e+01) (466 1.81590690612792968750e+01) (467 1.79079189300537109375e+01) (468 1.73855018615722656250e+01) (469 1.74390296936035156250e+01) (470 1.75757961273193359375e+01) (471 1.73527488708496093750e+01) (472 1.77286777496337890625e+01) (473 1.73763504028320312500e+01) (474 1.79130001068115234375e+01) (475 1.74789047241210937500e+01) (476 1.79337291717529296875e+01) (477 1.77404308319091796875e+01) (478 1.72391510009765625000e+01) (479 1.76131019592285156250e+01) (480 1.82464351654052734375e+01) (481 1.81615104675292968750e+01) (482 1.72964439392089843750e+01) (483 1.81551837921142578125e+01) (484 1.79215545654296875000e+01) (485 1.83773651123046875000e+01) (486 1.74637889862060546875e+01) (487 1.77345161437988281250e+01) (488 1.76377696990966796875e+01) (489 1.80928573608398437500e+01) (490 1.76872425079345703125e+01) (491 1.78533649444580078125e+01) (492 1.76427593231201171875e+01) (493 1.73880405426025390625e+01) (494 1.77974948883056640625e+01) (495 1.77652263641357421875e+01) (496 1.77464294433593750000e+01) (497 1.73154869079589843750e+01) (498 1.77467460632324218750e+01) (499 1.74899272918701171875e+01) (500 1.77219963073730468750e+01) (501 1.70834503173828125000e+01) (502 1.78008651733398437500e+01) (503 1.80774974822998046875e+01) (504 1.83477611541748046875e+01) (505 1.78226356506347656250e+01) (506 1.78480415344238281250e+01) (507 1.78115940093994140625e+01) (508 1.76085205078125000000e+01) (509 1.75060043334960937500e+01) (510 1.84526691436767578125e+01) (511 1.77646141052246093750e+01) (512 1.79009056091308593750e+01) (513 1.82291297912597656250e+01) (514 1.81799697875976562500e+01) (515 1.76194839477539062500e+01) (516 1.78449211120605468750e+01) (517 1.77647552490234375000e+01) (518 1.77252521514892578125e+01) (519 1.75438995361328125000e+01) (520 1.70402870178222656250e+01) (521 1.82732276916503906250e+01) (522 1.74767112731933593750e+01) (523 1.74015617370605468750e+01) (524 1.72603321075439453125e+01) (525 1.75153179168701171875e+01) (526 1.80236759185791015625e+01) (527 1.76036224365234375000e+01) (528 1.74570064544677734375e+01) (529 1.79671649932861328125e+01) (530 1.80964984893798828125e+01) (531 1.76596508026123046875e+01) (532 1.78637180328369140625e+01) (533 1.78403491973876953125e+01) (534 1.79339332580566406250e+01) (535 1.75894470214843750000e+01) (536 1.77358837127685546875e+01) (537 1.78335361480712890625e+01) (538 1.73658027648925781250e+01) (539 1.74481754302978515625e+01) (540 1.82575149536132812500e+01) (541 1.74774246215820312500e+01) (542 1.79226837158203125000e+01) (543 1.74254379272460937500e+01) (544 1.81355113983154296875e+01) (545 1.74023952484130859375e+01) (546 1.75673522949218750000e+01) (547 1.75971660614013671875e+01) (548 1.78262615203857421875e+01) (549 1.72462959289550781250e+01) (550 1.73646793365478515625e+01) (551 1.79879493713378906250e+01) (552 1.75361118316650390625e+01) (553 1.75605792999267578125e+01) (554 1.74918403625488281250e+01) (555 1.77931423187255859375e+01) (556 1.78920974731445312500e+01) (557 1.75723972320556640625e+01) (558 1.72003993988037109375e+01) (559 1.78689899444580078125e+01) (560 1.73345890045166015625e+01) (561 1.71678848266601562500e+01) (562 1.76251888275146484375e+01) (563 1.75987167358398437500e+01) (564 1.76480407714843750000e+01) (565 1.74825706481933593750e+01) (566 1.78071117401123046875e+01) (567 1.79269142150878906250e+01) (568 1.77037162780761718750e+01) (569 1.77028713226318359375e+01) (570 1.79356689453125000000e+01) (571 1.77148571014404296875e+01) (572 1.75169124603271484375e+01) (573 1.75984916687011718750e+01) (574 1.79775867462158203125e+01) (575 1.76823978424072265625e+01) (576 1.78787784576416015625e+01) (577 1.76813507080078125000e+01) (578 1.79571304321289062500e+01) (579 1.84760608673095703125e+01) (580 1.74417457580566406250e+01) (581 1.76760921478271484375e+01) (582 1.77641983032226562500e+01) (583 1.75677223205566406250e+01) (584 1.76674747467041015625e+01) (585 1.83269710540771484375e+01) (586 1.75864772796630859375e+01) (587 1.75859718322753906250e+01) (588 1.84847507476806640625e+01) (589 1.79885120391845703125e+01) (590 1.71064739227294921875e+01) (591 1.72346000671386718750e+01) (592 1.79641246795654296875e+01) (593 1.76219577789306640625e+01) (594 1.71460342407226562500e+01) (595 1.74495086669921875000e+01) (596 1.74700508117675781250e+01) (597 1.76693763732910156250e+01) (598 1.77182312011718750000e+01) (599 1.78523273468017578125e+01) (600 1.75924968719482421875e+01) (0 3.40152645111083984375e+00) (1 3.59900403022766113281e+00) (2 3.95759177207946777344e+00) (3 4.31175518035888671875e+00) (4 3.91597986221313476562e+00) (5 3.62044405937194824219e+00) (6 4.15181112289428710938e+00) (7 3.68351316452026367188e+00) (8 3.60635876655578613281e+00) (9 3.46551060676574707031e+00) (10 3.90335154533386230469e+00) (11 4.60031175613403320312e+00) (12 4.55836868286132812500e+00) (13 4.70781040191650390625e+00) (14 3.89962220191955566406e+00) (15 3.65425348281860351562e+00) (16 3.87451267242431640625e+00) (17 3.16101431846618652344e+00) (18 4.04157924652099609375e+00) (19 4.14645051956176757812e+00) (20 3.37210679054260253906e+00) (21 3.54272651672363281250e+00) (22 3.22378802299499511719e+00) (23 3.40623378753662109375e+00) (24 3.42463111877441406250e+00) (25 3.53612399101257324219e+00) (26 3.77170920372009277344e+00) (27 3.20597028732299804688e+00) (28 3.38253998756408691406e+00) (29 3.23271989822387695312e+00) (30 3.65180706977844238281e+00) (31 4.01796007156372070312e+00) (32 3.65432715415954589844e+00) (33 3.21111130714416503906e+00) (34 3.62709999084472656250e+00) (35 3.82164740562438964844e+00) (36 3.89927005767822265625e+00) (37 2.92323184013366699219e+00) (38 3.27802824974060058594e+00) (39 4.21099472045898437500e+00) (40 4.32923269271850585938e+00) (41 4.23457956314086914062e+00) (42 3.68576002120971679688e+00) (43 3.69352531433105468750e+00) (44 4.23873805999755859375e+00) (45 3.34248232841491699219e+00) (46 3.76653790473937988281e+00) (47 3.47867798805236816406e+00) (48 3.44025564193725585938e+00) (49 3.75845980644226074219e+00) (50 4.38472700119018554688e+00) (51 3.74522399902343750000e+00) (52 3.84095501899719238281e+00) (53 3.42707443237304687500e+00) (54 2.94704627990722656250e+00) (55 3.36070537567138671875e+00) (56 3.18453049659729003906e+00) (57 3.28875231742858886719e+00) (58 3.15233969688415527344e+00) (59 3.21731472015380859375e+00) (60 3.45760250091552734375e+00) (61 4.02768850326538085938e+00) (62 3.81588554382324218750e+00) (63 3.11504673957824707031e+00) (64 4.07179403305053710938e+00) (65 3.60418844223022460938e+00) (66 3.16857671737670898438e+00) (67 3.31668949127197265625e+00) (68 4.08549213409423828125e+00) (69 4.19682836532592773438e+00) (70 4.38486909866333007812e+00) (71 4.17351818084716796875e+00) (72 3.94056606292724609375e+00) (73 4.33035659790039062500e+00) (74 4.41987037658691406250e+00) (75 4.18460798263549804688e+00) (76 4.61049222946166992188e+00) (77 4.33194732666015625000e+00) (78 3.99386787414550781250e+00) (79 3.29479289054870605469e+00) (80 3.84016132354736328125e+00) (81 3.33436894416809082031e+00) (82 3.94486546516418457031e+00) (83 3.74935340881347656250e+00) (84 3.38795661926269531250e+00) (85 3.48325586318969726562e+00) (86 3.18204450607299804688e+00) (87 3.58875131607055664062e+00) (88 3.30859732627868652344e+00) (89 3.45245838165283203125e+00) (90 3.42801737785339355469e+00) (91 4.31959104537963867188e+00) (92 3.31684541702270507812e+00) (93 3.68590426445007324219e+00) (94 3.97786068916320800781e+00) (95 3.37341833114624023438e+00) (96 3.98250985145568847656e+00) (97 3.47153162956237792969e+00) (98 3.76528525352478027344e+00) (99 4.32467412948608398438e+00) (100 3.90872335433959960938e+00) (101 3.45446205139160156250e+00) (102 3.75983047485351562500e+00) (103 4.22804641723632812500e+00) (104 4.45709037780761718750e+00) (105 4.27489137649536132812e+00) (106 3.81741404533386230469e+00) (107 3.47763204574584960938e+00) (108 3.70551323890686035156e+00) (109 4.27043056488037109375e+00) (110 4.40576982498168945312e+00) (111 4.13050889968872070312e+00) (112 3.55248951911926269531e+00) (113 3.63420653343200683594e+00) (114 3.15229463577270507812e+00) (115 3.53511500358581542969e+00) (116 2.91738080978393554688e+00) (117 3.48946356773376464844e+00) (118 3.32202243804931640625e+00) (119 3.69183254241943359375e+00) (120 3.73721194267272949219e+00) (121 4.21628141403198242188e+00) (122 3.14916276931762695312e+00) (123 3.35359311103820800781e+00) (124 3.29144454002380371094e+00) (125 3.93359065055847167969e+00) (126 3.50594067573547363281e+00) (127 3.67585754394531250000e+00) (128 3.36057019233703613281e+00) (129 3.98668336868286132812e+00) (130 3.78453946113586425781e+00) (131 3.60215020179748535156e+00) (132 3.77555704116821289062e+00) (133 3.77747297286987304688e+00) (134 4.41858530044555664062e+00) (135 3.84514284133911132812e+00) (136 3.42926383018493652344e+00) (137 3.99995541572570800781e+00) (138 3.78935861587524414062e+00) (139 3.38563990592956542969e+00) (140 3.42365074157714843750e+00) (141 3.82022166252136230469e+00) (142 3.79391241073608398438e+00) (143 3.27308058738708496094e+00) (144 2.96582198143005371094e+00) (145 3.81662988662719726562e+00) (146 3.36583232879638671875e+00) (147 3.17196106910705566406e+00) (148 3.49777030944824218750e+00) (149 3.68001103401184082031e+00) (150 3.88719701766967773438e+00) (151 3.69649577140808105469e+00) (152 3.30825114250183105469e+00) (153 3.95204997062683105469e+00) (154 4.26821947097778320312e+00) (155 3.40512561798095703125e+00) (156 3.67754149436950683594e+00) (157 3.78504991531372070312e+00) (158 4.29656028747558593750e+00) (159 4.67774534225463867188e+00) (160 4.34794425964355468750e+00) (161 4.22387599945068359375e+00) (162 3.95594120025634765625e+00) (163 4.41214990615844726562e+00) (164 4.07362079620361328125e+00) (165 4.42668104171752929688e+00) (166 4.55371427536010742188e+00) (167 4.38846397399902343750e+00) (168 3.66378450393676757812e+00) (169 3.49970149993896484375e+00) (170 3.13771510124206542969e+00) (171 3.45307612419128417969e+00) (172 3.83083152770996093750e+00) (173 3.92212367057800292969e+00) (174 3.42636537551879882812e+00) (175 3.70571494102478027344e+00) (176 3.98122024536132812500e+00) (177 3.70852875709533691406e+00) (178 3.48215675354003906250e+00) (179 3.81474208831787109375e+00) (180 3.48430466651916503906e+00) (181 3.67147445678710937500e+00) (182 3.04658126831054687500e+00) (183 3.99269914627075195312e+00) (184 4.29835224151611328125e+00) (185 3.50558090209960937500e+00) (186 3.92033123970031738281e+00) (187 4.02194023132324218750e+00) (188 3.93331408500671386719e+00) (189 3.62041449546813964844e+00) (190 3.94913244247436523438e+00) (191 4.47266483306884765625e+00) (192 3.68254065513610839844e+00) (193 3.88968038558959960938e+00) (194 3.17024850845336914062e+00) (195 2.93530821800231933594e+00) (196 4.03927516937255859375e+00) (197 3.64297604560852050781e+00) (198 4.28051090240478515625e+00) (199 4.10515642166137695312e+00) (200 3.45153808593750000000e+00) (201 3.56085586547851562500e+00) (202 3.50093483924865722656e+00) (203 3.87750697135925292969e+00) (204 3.87221050262451171875e+00) (205 3.36162209510803222656e+00) (206 3.52534556388854980469e+00) (207 3.77928733825683593750e+00) (208 3.18357872962951660156e+00) (209 3.66364073753356933594e+00) (210 3.48635697364807128906e+00) (211 3.62188458442687988281e+00) (212 3.60028886795043945312e+00) (213 4.37803411483764648438e+00) (214 3.76682400703430175781e+00) (215 3.68302726745605468750e+00) (216 3.24743318557739257812e+00) (217 3.79221987724304199219e+00) (218 3.59365057945251464844e+00) (219 4.64912033081054687500e+00) (220 4.05654048919677734375e+00) (221 3.91653823852539062500e+00) (222 3.53311562538146972656e+00) (223 3.58637475967407226562e+00) (224 3.63745903968811035156e+00) (225 4.01937818527221679688e+00) (226 4.52167940139770507812e+00) (227 3.24141597747802734375e+00) (228 3.40196061134338378906e+00) (229 3.62256741523742675781e+00) (230 3.48602938652038574219e+00) (231 4.07220745086669921875e+00) (232 3.47267484664916992188e+00) (233 3.87620162963867187500e+00) (234 4.37244892120361328125e+00) (235 3.46759605407714843750e+00) (236 3.31704974174499511719e+00) (237 3.54406642913818359375e+00) (238 3.18024992942810058594e+00) (239 3.51254248619079589844e+00) (240 3.51558542251586914062e+00) (241 4.08509111404418945312e+00) (242 3.81165385246276855469e+00) (243 4.29117774963378906250e+00) (244 3.29566431045532226562e+00) (245 3.75972747802734375000e+00) (246 2.96474432945251464844e+00) (247 3.75961112976074218750e+00) (248 3.21603870391845703125e+00) (249 4.29898595809936523438e+00) (250 3.79741406440734863281e+00) (251 4.12457275390625000000e+00) (252 4.19288778305053710938e+00) (253 4.48812437057495117188e+00) (254 4.62119340896606445312e+00) (255 4.21417522430419921875e+00) (256 3.96494412422180175781e+00) (257 3.90718269348144531250e+00) (258 4.22646903991699218750e+00) (259 3.74656867980957031250e+00) (260 3.92793345451354980469e+00) (261 4.11943578720092773438e+00) (262 3.53883957862854003906e+00) (263 3.08037614822387695312e+00) (264 3.88115239143371582031e+00) (265 3.94362139701843261719e+00) (266 3.60635662078857421875e+00) (267 3.29307675361633300781e+00) (268 3.23017406463623046875e+00) (269 3.39505195617675781250e+00) (270 3.97900724411010742188e+00) (271 3.73594665527343750000e+00) (272 3.63143515586853027344e+00) (273 3.61422777175903320312e+00) (274 3.90317106246948242188e+00) (275 3.71309685707092285156e+00) (276 3.16940188407897949219e+00) (277 3.83157420158386230469e+00) (278 4.18282890319824218750e+00) (279 4.13647174835205078125e+00) (280 3.75843214988708496094e+00) (281 4.55488395690917968750e+00) (282 4.11784791946411132812e+00) (283 4.47474145889282226562e+00) (284 4.01445007324218750000e+00) (285 3.76429772377014160156e+00) (286 4.01059627532958984375e+00) (287 3.62912511825561523438e+00) (288 3.82581973075866699219e+00) (289 3.62959098815917968750e+00) (290 4.11627578735351562500e+00) (291 3.78605675697326660156e+00) (292 3.59573125839233398438e+00) (293 3.89859390258789062500e+00) (294 3.56513476371765136719e+00) (295 3.73653864860534667969e+00) (296 3.34827089309692382812e+00) (297 3.67878293991088867188e+00) (298 3.10145807266235351562e+00) (299 3.21896433830261230469e+00) (300 3.94032001495361328125e+00) (301 3.65998721122741699219e+00) (302 3.80561470985412597656e+00) (303 3.31010031700134277344e+00) (304 3.77991461753845214844e+00) (305 3.95889997482299804688e+00) (306 3.65432977676391601562e+00) (307 3.70044159889221191406e+00) (308 4.38101434707641601562e+00) (309 3.96985673904418945312e+00) (310 4.10422039031982421875e+00) (311 4.39174604415893554688e+00) (312 4.52540397644042968750e+00) (313 4.97310209274291992188e+00) (314 4.84312438964843750000e+00) (315 4.54720544815063476562e+00) (316 4.49213790893554687500e+00) (317 3.54221558570861816406e+00) (318 3.71959233283996582031e+00) (319 3.66315627098083496094e+00) (320 3.73181414604187011719e+00) (321 3.45546030998229980469e+00) (322 3.15377998352050781250e+00) (323 3.62623906135559082031e+00) (324 3.47314858436584472656e+00) (325 3.74203300476074218750e+00) (326 3.59492444992065429688e+00) (327 3.50251007080078125000e+00) (328 3.26534581184387207031e+00) (329 3.39722037315368652344e+00) (330 3.87292003631591796875e+00) (331 3.35245871543884277344e+00) (332 3.40195965766906738281e+00) (333 3.35579061508178710938e+00) (334 3.54086041450500488281e+00) (335 3.60300731658935546875e+00) (336 3.15776658058166503906e+00) (337 4.06363153457641601562e+00) (338 4.24738836288452148438e+00) (339 4.15610790252685546875e+00) (340 4.05620813369750976562e+00) (341 3.95033121109008789062e+00) (342 4.41414690017700195312e+00) (343 4.58780479431152343750e+00) (344 4.11839389801025390625e+00) (345 3.41686248779296875000e+00) (346 3.60866689682006835938e+00) (347 3.57803225517272949219e+00) (348 4.11472415924072265625e+00) (349 3.44862246513366699219e+00) (350 3.87083458900451660156e+00) (351 3.71134209632873535156e+00) (352 3.87958216667175292969e+00) (353 3.65299725532531738281e+00) (354 4.17401075363159179688e+00) (355 3.49794864654541015625e+00) (356 3.57102990150451660156e+00) (357 3.43310546875000000000e+00) (358 3.71841907501220703125e+00) (359 3.32234096527099609375e+00) (360 3.61254096031188964844e+00) (361 3.46628999710083007812e+00) (362 3.25981974601745605469e+00) (363 3.38856077194213867188e+00) (364 3.92064857482910156250e+00) (365 4.27512311935424804688e+00) (366 3.53862357139587402344e+00) (367 3.84439206123352050781e+00) (368 4.27321910858154296875e+00) (369 3.48373484611511230469e+00) (370 3.56837248802185058594e+00) (371 3.56288957595825195312e+00) (372 3.98983144760131835938e+00) (373 4.37233018875122070312e+00) (374 3.68262243270874023438e+00) (375 4.02617788314819335938e+00) (376 3.69302105903625488281e+00) (377 3.36261892318725585938e+00) (378 3.85225439071655273438e+00) (379 3.58661746978759765625e+00) (380 3.51329183578491210938e+00) (381 3.97928547859191894531e+00) (382 3.82325243949890136719e+00) (383 3.87997722625732421875e+00) (384 3.80683183670043945312e+00) (385 3.24748158454895019531e+00) (386 3.72836184501647949219e+00) (387 3.27149033546447753906e+00) (388 3.64180326461791992188e+00) (389 3.50100779533386230469e+00) (390 3.55085253715515136719e+00) (391 3.75810480117797851562e+00) (392 3.48346781730651855469e+00) (393 3.61699366569519042969e+00) (394 4.03776788711547851562e+00) (395 4.42937040328979492188e+00) (396 3.19500374794006347656e+00) (397 3.09291076660156250000e+00) (398 3.79579830169677734375e+00) (399 3.67146730422973632812e+00) (400 3.60304737091064453125e+00) (401 3.76885056495666503906e+00) (402 3.40189409255981445312e+00) (403 4.01587724685668945312e+00) (404 3.79959678649902343750e+00) (405 3.82208442687988281250e+00) (406 3.64759731292724609375e+00) (407 3.73203587532043457031e+00) (408 3.78792262077331542969e+00) (409 3.29300332069396972656e+00) (410 3.62626814842224121094e+00) (411 3.56324768066406250000e+00) (412 3.81023192405700683594e+00) (413 4.39814996719360351562e+00) (414 3.22036480903625488281e+00) (415 3.49829888343811035156e+00) (416 3.82717728614807128906e+00) (417 3.45473933219909667969e+00) (418 3.45140409469604492188e+00) (419 3.58603310585021972656e+00) (420 3.41501283645629882812e+00) (421 3.59181451797485351562e+00) (422 3.95619249343872070312e+00) (423 3.87446212768554687500e+00) (424 3.80306220054626464844e+00) (425 4.23729372024536132812e+00) (426 3.23748588562011718750e+00) (427 3.67210555076599121094e+00) (428 3.46458601951599121094e+00) (429 3.58394050598144531250e+00) (430 3.11500430107116699219e+00) (431 3.80206441879272460938e+00) (432 3.03655862808227539062e+00) (433 3.68118309974670410156e+00) (434 3.20007467269897460938e+00) (435 3.32781171798706054688e+00) (436 3.86350965499877929688e+00) (437 3.35723114013671875000e+00) (438 3.68821787834167480469e+00) (439 3.97984004020690917969e+00) (440 3.76158547401428222656e+00) (441 4.11213731765747070312e+00) (442 3.78815484046936035156e+00) (443 4.06641244888305664062e+00) (444 3.52361774444580078125e+00) (445 3.77567839622497558594e+00) (446 3.96819996833801269531e+00) (447 3.49193859100341796875e+00) (448 3.61696267127990722656e+00) (449 3.55286431312561035156e+00) (450 3.35642647743225097656e+00) (451 3.73009991645812988281e+00) (452 3.93717575073242187500e+00) (453 3.95921730995178222656e+00) (454 3.88209080696105957031e+00) (455 3.93309020996093750000e+00) (456 3.16001415252685546875e+00) (457 4.00859928131103515625e+00) (458 3.55127024650573730469e+00) (459 3.37869477272033691406e+00) (460 2.76670408248901367188e+00) (461 3.57719326019287109375e+00) (462 3.97685956954956054688e+00) (463 3.65313363075256347656e+00) (464 3.72753715515136718750e+00) (465 3.55350351333618164062e+00) (466 4.09851312637329101562e+00) (467 3.89408326148986816406e+00) (468 3.74706077575683593750e+00) (469 3.51967525482177734375e+00) (470 3.79362273216247558594e+00) (471 3.32577729225158691406e+00) (472 3.16716337203979492188e+00) (473 3.69746994972229003906e+00) (474 3.38688492774963378906e+00) (475 3.41000843048095703125e+00) (476 3.73193717002868652344e+00) (477 3.74969577789306640625e+00) (478 3.47285699844360351562e+00) (479 3.64097285270690917969e+00) (480 3.83411574363708496094e+00) (481 3.71782946586608886719e+00) (482 3.62171697616577148438e+00) (483 4.37088155746459960938e+00) (484 3.81322145462036132812e+00) (485 4.27433061599731445312e+00) (486 3.01189565658569335938e+00) (487 3.60336804389953613281e+00) (488 3.66870999336242675781e+00) (489 3.63411307334899902344e+00) (490 3.48124623298645019531e+00) (491 3.34648489952087402344e+00) (492 3.75994920730590820312e+00) (493 3.04315567016601562500e+00) (494 3.44173240661621093750e+00) (495 3.90117311477661132812e+00) (496 4.08768796920776367188e+00) (497 3.31898045539855957031e+00) (498 3.86157798767089843750e+00) (499 3.63120269775390625000e+00) (500 4.07478952407836914062e+00) (501 3.65215802192687988281e+00) (502 3.75801753997802734375e+00) (503 3.69196939468383789062e+00) (504 3.68088698387145996094e+00) (505 3.56705474853515625000e+00) (506 4.00633811950683593750e+00) (507 3.94797348976135253906e+00) (508 3.68019223213195800781e+00) (509 3.48273730278015136719e+00) (510 4.47919416427612304688e+00) (511 3.78170061111450195312e+00) (512 4.16914606094360351562e+00) (513 4.50286293029785156250e+00) (514 3.73867702484130859375e+00) (515 3.47691845893859863281e+00) (516 3.61146163940429687500e+00) (517 3.54499506950378417969e+00) (518 3.96414685249328613281e+00) (519 3.21267819404602050781e+00) (520 3.15982508659362792969e+00) (521 3.73798680305480957031e+00) (522 3.17843222618103027344e+00) (523 3.34799647331237792969e+00) (524 3.31929755210876464844e+00) (525 3.63621640205383300781e+00) (526 3.79140067100524902344e+00) (527 3.15527129173278808594e+00) (528 3.50268816947937011719e+00) (529 3.71828532218933105469e+00) (530 3.29393172264099121094e+00) (531 4.03953599929809570312e+00) (532 3.91948628425598144531e+00) (533 3.88452506065368652344e+00) (534 3.73802781105041503906e+00) (535 3.74452590942382812500e+00) (536 3.55405259132385253906e+00) (537 3.82571697235107421875e+00) (538 3.67725324630737304688e+00) (539 3.49982929229736328125e+00) (540 4.31851148605346679688e+00) (541 3.61167931556701660156e+00) (542 4.00150537490844726562e+00) (543 4.13616085052490234375e+00) (544 3.96885275840759277344e+00) (545 3.55227565765380859375e+00) (546 3.71505117416381835938e+00) (547 3.49966669082641601562e+00) (548 3.60519242286682128906e+00) (549 3.00864863395690917969e+00) (550 2.91767358779907226562e+00) (551 3.83503246307373046875e+00) (552 3.85929870605468750000e+00) (553 3.57989978790283203125e+00) (554 3.24214220046997070312e+00) (555 3.50855827331542968750e+00) (556 3.83541393280029296875e+00) (557 3.25872898101806640625e+00) (558 3.06822562217712402344e+00) (559 3.95588755607604980469e+00) (560 2.98494267463684082031e+00) (561 3.43812847137451171875e+00) (562 3.60153317451477050781e+00) (563 3.43380618095397949219e+00) (564 3.67528247833251953125e+00) (565 3.32640600204467773438e+00) (566 3.28619456291198730469e+00) (567 3.79836750030517578125e+00) (568 4.03562355041503906250e+00) (569 3.69950866699218750000e+00) (570 4.10367679595947265625e+00) (571 3.92148303985595703125e+00) (572 3.62399554252624511719e+00) (573 3.40269756317138671875e+00) (574 3.79591846466064453125e+00) (575 3.36872100830078125000e+00) (576 3.81868004798889160156e+00) (577 3.57201600074768066406e+00) (578 3.84549355506896972656e+00) (579 4.03426122665405273438e+00) (580 3.29886364936828613281e+00) (581 3.64901208877563476562e+00) (582 3.52322530746459960938e+00) (583 